svm_type c_svc
kernel_type linear
nr_class 2
total_sv 8
rho -2.3088911570480772
label 0 1
nr_sv 5 3
SV
1.3482882930472773 0:0.41334504 1:0.74314415 2:0.99609375 3:0.46890944 4:0.88879144 5:0.99609375 6:0.827567 7:0.88416773 8:0.99609375 9:0.7552615 10:0.8408004 11:0.99521685 12:0.49521685 13:0.86654973 14:0.99609375 15:0.53778696 16:0.8354592 17:0.99609375 18:0.47831634 19:0.8380102 20:0.99609375 21:0.5942283 22:0.817044 23:0.99609375 24:0.49705037 25:0.9331952 26:0.99609375 
1.327160676175061 0:0.99609375 1:0.69889987 2:0.7737564 3:0.99609375 4:0.7008131 5:0.7742347 6:0.9768814 7:0.59709823 8:0.68885523 9:0.98620856 10:0.53348213 11:0.6483578 12:0.99609375 13:0.70041454 14:0.77407527 15:0.99609375 16:0.6875797 17:0.765625 18:0.99609375 19:0.69547194 20:0.76945156 21:0.9958546 22:0.6918048 23:0.7667411 24:0.9753667 25:0.6714764 26:0.74529654 
1.3753209166654001 0:0.9221939 1:0.49067283 2:0.984375 3:0.9281728 4:0.6770568 5:0.9815051 6:0.9499362 7:0.30612245 8:0.97815686 9:0.969308 10:0.86336094 11:0.99601406 12:0.93279654 13:0.6557717 14:0.99609375 15:0.9350287 16:0.74083227 17:0.9799904 18:0.8683833 19:0.31026787 20:0.9367028 21:0.99609375 22:0.415338 23:0.99035394 24:0.8539541 25:0.21101722 26:0.9456314 
0.2959707055289417 0:0.99609375 1:0.9468272 2:0.13400829 3:0.96029973 4:0.81529015 5:0.606824 6:0.99609375 7:0.9386161 8:0.13767539 9:0.9436384 10:0.75964606 11:0.58203125 12:0.9292092 13:0.7299904 14:0.45264667 15:0.93478954 16:0.8046078 17:0.58027744 18:0.99609375 19:0.92259246 20:0.13337053 21:0.940051 22:0.7260842 23:0.5571588 24:0.9956154 25:0.9123884 26:0.13408801 
0.6403248183461051 0:0.12244898 1:0.6998565 2:0.15178572 3:0.10100447 4:0.46420598 5:0.07908163 6:0.17291135 7:0.71029973 8:0.13496493 9:0.16996174 10:0.5367506 11:0.0756537 12:0.1385523 13:0.76698023 14:0.17012118 15:0.17195472 16:0.4564732 17:0.06122449 18:0.052535076 19:0.80484694 20:0.20360331 21:0.10331633 22:0.48533162 23:0.098772325 24:0.16063456 25:0.6446907 26:0.11511479 
-0.5612885763033615 0:0.8136958 1:0.8917411 2:0.82095027 3:0.7769452 4:0.875 5:0.7549426 6:0.5698342 7:0.83689415 8:0.5431282 9:0.8889509 10:0.8938138 11:0.88926977 12:0.9406888 13:0.96022004 14:0.94132656 15:0.56672513 16:0.78284436 17:0.5003986 18:0.5633769 19:0.81409436 20:0.62053573 21:0.44523278 22:0.7346939 23:0.41645408 24:0.6599171 25:0.8324298 26:0.64915496 
-1.096022117390644 0:0.7847577 1:0.80947065 2:0.81839925 3:0.7524713 4:0.80691963 5:0.8313138 6:0.6015625 7:0.6843112 8:0.7153221 9:0.84359056 10:0.8561065 11:0.8604911 12:0.9441167 13:0.95001596 14:0.9526467 15:0.46197385 16:0.60658485 17:0.6761798 18:0.6360013 19:0.7492028 20:0.80133927 21:0.42482463 22:0.5671237 23:0.6310587 24:0.6780134 25:0.78435904 26:0.832669 
-3.3297547160687793 0:0.86328125 1:0.8017379 2:0.8725287 3:0.8006218 4:0.7289541 5:0.80484694 6:0.7737564 7:0.5961416 8:0.79966515 9:0.8761958 10:0.8405612 11:0.87595665 12:0.95583546 13:0.9449936 14:0.95711094 15:0.6250797 16:0.3605708 17:0.6157526 18:0.76626277 19:0.6301818 20:0.7896205 21:0.6898119 22:0.40967792 23:0.7476084 24:0.73341835 25:0.6460459 26:0.7433036 
