svm_type c_svc
kernel_type rbf
gamma 0.5
nr_class 2
total_sv 42
rho -0.2700739028689932
label 0 1
nr_sv 27 15
SV
0.014860537174935963 0:0.8550702 1:0.15696748 2:0.5114796 3:0.8774713 4:0.14540817 5:0.5199298 6:0.8715721 7:0.13384885 8:0.51171875 9:0.8173629 10:0.15672831 11:0.4900351 12:0.8050064 13:0.3375319 14:0.5817921 15:0.966757 16:0.64620537 17:0.84470665 18:0.82015306 19:0.1500319 20:0.48780292 21:0.87563777 22:0.14756058 23:0.5225606 24:0.8761958 25:0.15656888 26:0.528699 27:0.8701371 28:0.15720664 29:0.52558994 30:0.80691963 31:0.14732143 32:0.4781569 33:0.8206314 34:0.3890306 35:0.61997765 36:0.7973533 37:0.14827806 38:0.47313458 39:0.8753189 40:0.1529815 41:0.5238361 42:0.8767538 43:0.15521365 44:0.52702487 45:0.87436223 46:0.15202487 47:0.52622765 48:0.8400032 49:0.12930484 50:0.48732463 51:0.74529654 52:0.2471301 53:0.49362245 54:0.84733737 55:0.14285715 56:0.49920282 57:0.87771046 58:0.15114796 59:0.5260682 60:0.877551 61:0.15258291 62:0.52566963 63:0.85913587 64:0.14652424 65:0.50845027 66:0.78340244 67:0.15361926 68:0.47050384 69:0.8827328 70:0.49274555 71:0.7138074 72:0.8519611 73:0.14875638 74:0.5023119 75:0.87197065 76:0.15122768 77:0.52128506 78:0.8510842 79:0.14604592 80:0.5035077 81:0.78053254 82:0.16438138 83:0.4728157 84:0.8625638 85:0.38719708 86:0.66629463 87:0.98716515 88:0.6623087 89:0.873007 90:0.74601406 91:0.15808354 92:0.44507334 93:0.7754305 94:0.14030612 95:0.44953763 96:0.77240115 97:0.21245217 98:0.49418047 99:0.8876754 100:0.4654018 101:0.7126913 102:0.9886798 103:0.6529815 104:0.8679847 105:0.9873246 106:0.6116869 107:0.84159756 
0.024205147283713944 0:0.6784917 1:0.18486926 2:0.7456952 3:0.58976406 4:0.078762755 5:0.6059471 6:0.58235013 7:0.040656887 8:0.58195156 9:0.60754144 10:0.07605229 11:0.6323342 12:0.7417092 13:0.17952806 14:0.82629144 15:0.8248565 16:0.17976722 17:0.95495856 18:0.5842634 19:0.034119897 20:0.5804369 21:0.6831154 22:1.5943877E-4 23:0.6548151 24:0.68965244 26:0.65927935 27:0.6729911 29:0.64461094 30:0.61120856 31:0.03882334 32:0.6145568 33:0.7593272 34:0.17538266 35:0.8598533 36:0.6368782 37:0.0019929847 38:0.6194994 39:0.6615912 40:0.02455357 41:0.6447704 42:0.6626276 43:0.055484693 44:0.6585619 45:0.6533004 46:0.014190051 47:0.6354432 48:0.62436223 49:7.174745E-4 50:0.6000478 51:0.6739477 52:0.13480549 53:0.7302296 54:0.5972577 55:0.04464286 56:0.6020408 57:0.77327806 58:0.21061862 59:0.84303254 60:0.8270089 61:0.24904336 62:0.91996175 63:0.69220346 64:0.1632653 65:0.74553573 66:0.55277425 67:0.011080995 68:0.54065686 69:0.6623087 70:0.122608416 71:0.7257653 72:0.58864796 73:0.14732143 74:0.64740115 75:0.8610491 76:0.25342792 77:0.9779974 78:0.84757656 79:0.19132653 80:0.97672194 81:0.74489796 82:0.20758928 83:0.84446746 84:0.50215244 85:0.08075574 86:0.5379464 87:0.7619579 88:0.17633928 89:0.8676658 90:0.77327806 91:0.23477359 92:0.87563777 93:0.8492506 94:0.22305484 95:0.9724171 96:0.8393654 97:0.17745535 98:0.97441006 99:0.7590083 100:0.19674745 101:0.8698182 102:0.716199 103:0.19714604 104:0.81186223 105:0.8327487 106:0.18152104 107:0.96572065 
0.5534634804414842 0:0.8136958 1:0.8917411 2:0.82095027 3:0.9418048 4:0.95998085 5:0.9430006 6:0.7769452 7:0.875 8:0.7549426 9:0.859933 10:0.9070472 11:0.8388074 12:0.5698342 13:0.83689415 14:0.5431282 15:0.22664222 16:0.72640306 17:0.15776467 18:0.75797194 19:0.7873884 20:0.7465721 21:0.9210778 22:0.9389349 23:0.91972256 24:0.988919 25:0.9885204 26:0.9886798 27:0.8133769 28:0.91015625 29:0.8069994 30:0.28507653 31:0.8120217 32:0.23668686 33:0.15353954 34:0.8070791 35:0.07166773 36:0.8889509 37:0.8938138 38:0.88926977 39:0.9769611 40:0.97927296 41:0.9765625 42:0.9406888 43:0.96022004 44:0.94132656 45:0.89166135 46:0.92944837 47:0.88384885 48:0.56672513 49:0.78284436 50:0.5003986 51:0.28228635 52:0.78140944 53:0.17897002 54:0.9164541 55:0.94658804 56:0.9236288 57:0.7841996 58:0.89046556 59:0.80484694 60:0.72273594 61:0.8474968 62:0.7319037 63:0.6753029 64:0.8491709 65:0.68160075 66:0.8280453 67:0.84797513 68:0.8231824 69:0.6266741 70:0.7619579 71:0.5485491 72:0.5633769 73:0.81409436 74:0.62053573 75:0.40035078 76:0.7586097 77:0.4625319 78:0.44523278 79:0.7346939 80:0.41645408 81:0.43136162 82:0.7817283 83:0.44587055 84:0.6599171 85:0.8324298 86:0.64915496 87:0.6932398 88:0.7844388 89:0.6495536 90:0.2080676 91:0.7257653 92:0.32182717 93:0.24896365 94:0.73509246 95:0.29209185 96:0.26387116 97:0.77845985 98:0.27519134 99:0.29791135 100:0.7626754 101:0.3396843 102:0.34733737 103:0.76116073 104:0.34885204 105:0.3446269 106:0.7548629 107:0.31513074 
0.016375549805178295 0:0.9308833 1:0.7421078 3:0.68534756 4:0.5070153 6:0.5990115 7:0.3962851 9:0.8873565 10:0.69467473 12:0.9328763 13:0.7389987 15:0.9279337 16:0.7273597 18:0.6698023 19:0.49904338 21:0.6344866 22:0.45671237 24:0.5748565 25:0.38703763 27:0.6768176 28:0.513632 30:0.65027106 31:0.47919324 33:0.69108737 34:0.520169 36:0.5778061 37:0.36479592 39:0.55373085 40:0.36647004 42:0.54990435 43:0.35985333 45:0.61120856 46:0.42410713 48:0.5860172 49:0.39357463 51:0.59303254 52:0.41430166 54:0.87141263 55:0.68415177 57:0.6889349 58:0.5041454 60:0.57908165 61:0.3721301 63:0.88010204 64:0.6616709 66:0.89708227 67:0.7126913 69:0.91589606 70:0.72879463 72:0.9312022 73:0.75135523 75:0.7121333 76:0.513074 78:0.5514987 79:0.34598213 81:0.8626435 82:0.6597577 84:0.9357462 85:0.75103635 87:0.9066486 88:0.7022481 90:0.8863202 91:0.6970663 93:0.71285075 94:0.52965564 96:0.5590721 97:0.38010204 99:0.9105548 100:0.70902425 102:0.93247765 103:0.7068718 105:0.77965564 106:0.49864477 
0.29196521904489603 0:0.8761161 1:0.79902744 2:0.83657527 3:0.9514509 4:0.9325574 5:0.9432398 6:0.84941006 7:0.6996173 8:0.7766263 9:0.88416773 10:0.79496175 11:0.84103954 12:0.80341196 13:0.66621494 14:0.7397162 15:0.76745856 16:0.560507 17:0.69029015 18:0.77008927 19:0.6371173 20:0.70376277 21:0.9382972 22:0.91828763 23:0.92944837 24:0.9880421 25:0.9870057 26:0.98796237 27:0.89915496 28:0.8199936 29:0.8608099 30:0.7085459 31:0.30763713 32:0.5069356 33:0.7146843 34:0.36583227 35:0.55333227 36:0.87117344 37:0.8276467 38:0.84885204 39:0.97720027 40:0.97273594 41:0.9753667 42:0.9638871 43:0.95176977 44:0.9588648 45:0.9243463 46:0.886081 47:0.90648913 48:0.7280772 49:0.39851722 50:0.5632972 51:0.6382334 52:0.2582111 53:0.44722578 54:0.9449936 55:0.9262596 56:0.9360651 57:0.89373404 58:0.82653064 59:0.86240435 60:0.8436703 61:0.75964606 62:0.8058036 63:0.8356186 64:0.71197385 65:0.77766263 66:0.81696427 67:0.6987404 68:0.75653696 69:0.7442602 70:0.4913106 71:0.6351244 72:0.8110651 73:0.6351244 74:0.7221779 75:0.7315051 76:0.46261162 77:0.5981346 78:0.69467473 79:0.41645408 80:0.5575574 81:0.71022004 82:0.46875 83:0.5880102 84:0.8258131 85:0.73907846 86:0.79304844 87:0.8133769 88:0.6886958 89:0.7680963 90:0.6438138 91:0.3145727 92:0.4736926 93:0.6389509 94:0.26953125 95:0.44842157 96:0.63934946 97:0.28794643 98:0.46572065 99:0.71396685 100:0.50127554 101:0.62189096 102:0.7817283 103:0.6405453 104:0.7323023 105:0.7562978 106:0.5735013 107:0.6875797 
0.16407627177468642 0:0.12149235 1:0.703683 2:0.1533801 3:0.10817921 4:0.7425861 5:0.16087373 6:0.1023597 7:0.45408162 8:0.07676977 9:0.14150192 10:0.5801977 11:0.1007653 12:0.1734694 13:0.7113361 14:0.13536352 15:0.17960778 16:0.7075096 17:0.12794961 18:0.19826211 19:0.5280612 20:0.061623085 21:0.12818877 22:0.7014509 23:0.14429209 24:0.13321109 25:0.6776148 26:0.14461097 27:0.15082908 28:0.68104273 29:0.14341518 30:0.16517857 31:0.68367344 32:0.13225447 33:0.16972257 34:0.6947545 35:0.12340561 36:0.16964285 37:0.53101087 38:0.0731824 39:0.13934949 40:0.6139987 41:0.12205038 42:0.1398278 43:0.7652264 44:0.16884567 45:0.14022641 46:0.5874522 47:0.11726722 48:0.17522322 49:0.46157527 50:0.0600287 51:0.1513074 52:0.5420121 53:0.06393495 54:0.065290175 55:0.7476084 56:0.17873086 57:0.10108418 58:0.71946746 59:0.16597576 60:0.12866709 61:0.7085459 62:0.15816326 63:0.14939414 64:0.6813616 65:0.13847257 66:0.203125 67:0.48333865 68:0.046077807 69:0.22010523 70:0.4699458 71:0.025430486 72:0.055165816 73:0.80484694 74:0.20448023 75:0.09215561 76:0.69626915 77:0.16852678 78:0.107461736 79:0.48708546 80:0.09845345 81:0.13584183 82:0.7334981 83:0.15625 84:0.16366391 85:0.6398278 86:0.11296237 87:0.20073342 88:0.5182557 89:0.060746174 90:0.0628986 91:0.86415815 92:0.22249681 93:0.08729273 94:0.6553731 95:0.16031569 96:0.11926021 97:0.62436223 98:0.13400829 99:0.13958865 100:0.77128506 101:0.17251275 102:0.16454081 103:0.7664222 104:0.16581632 105:0.1776148 106:0.7317443 107:0.1541773 
0.3439829162909589 0:0.895169 1:0.87779015 2:0.801419 3:0.95216835 4:0.948581 5:0.9382972 6:0.81313777 7:0.7763871 8:0.70408165 9:0.8950096 10:0.87476087 11:0.8051658 12:0.82916135 13:0.7645089 14:0.5180166 15:0.75478315 16:0.6265147 17:0.14939414 18:0.7332589 19:0.705118 20:0.6183833 21:0.93765944 22:0.9333546 23:0.92346936 24:0.9878827 25:0.9878827 26:0.9873246 27:0.8510045 28:0.8353795 29:0.781808 30:0.5942283 31:0.48501277 32:0.19459502 33:0.5971779 34:0.46173468 35:0.06393495 36:0.87659436 37:0.86647004 38:0.84654015 39:0.9797513 40:0.97847575 41:0.9782366 42:0.9568718 43:0.95184946 44:0.94084823 45:0.9025829 46:0.89134246 47:0.8671078 48:0.60546875 49:0.515625 50:0.33904657 51:0.5375478 52:0.4005102 53:0.06720345 54:0.9470663 55:0.9409279 56:0.9135045 57:0.86065054 58:0.8400032 59:0.78053254 60:0.7967953 61:0.76658165 62:0.7113361 63:0.8298788 64:0.79129463 65:0.67586094 66:0.8455038 67:0.8101881 68:0.674426 69:0.7739158 70:0.64684314 71:0.13926977 72:0.8199936 73:0.7713648 74:0.55596304 75:0.674426 76:0.59821427 77:0.38081953 78:0.57254463 79:0.48174426 80:0.3223852 81:0.7329401 82:0.6553731 83:0.41924426 84:0.82676977 85:0.7887436 86:0.63257337 87:0.7680963 88:0.6812022 89:0.40385842 90:0.71859056 91:0.606824 92:0.20551658 93:0.6212532 94:0.5141901 95:0.17857143 96:0.51092154 97:0.39253828 98:0.12946428 99:0.72751915 100:0.6320153 101:0.2927296 102:0.75159436 103:0.643176 104:0.32382014 105:0.645169 106:0.49816644 107:0.27774236 
0.013384794682784189 0:0.86527425 1:0.80827487 2:0.87428254 3:0.95129144 4:0.9435587 5:0.953125 6:0.79823023 7:0.7262436 8:0.80245537 9:0.8654337 10:0.81321746 11:0.87029654 12:0.77032846 13:0.58808994 14:0.79703444 15:0.6842315 16:0.26865435 17:0.7688935 18:0.7216199 19:0.6145568 20:0.7220185 21:0.9337532 22:0.9158163 23:0.93303573 24:0.98860013 25:0.9881218 26:0.98860013 27:0.8677455 28:0.7924904 29:0.8647959 30:0.5817921 31:0.23166454 32:0.58777106 33:0.6733897 34:0.20567602 35:0.7553412 36:0.8784279 37:0.8452647 38:0.87802935 39:0.97935265 40:0.97672194 41:0.97935265 42:0.9557557 43:0.94555163 44:0.95615435 45:0.91135204 46:0.8773916 47:0.91103315 48:0.6203763 49:0.35331634 50:0.61240435 51:0.60658485 52:0.1859056 53:0.65601087 54:0.9428412 55:0.9222736 56:0.9453125 57:0.8761161 58:0.810507 59:0.8894292 60:0.8298788 61:0.74609375 62:0.8451849 63:0.814493 64:0.71277106 65:0.83282846 66:0.78220665 67:0.6911671 68:0.7787787 69:0.6336894 70:0.25597894 71:0.690051 72:0.76426977 73:0.6276307 74:0.78770727 75:0.7216199 76:0.48007014 77:0.7679369 78:0.6874203 79:0.40521365 80:0.74665177 81:0.7184311 82:0.48979592 83:0.76139987 84:0.734933 85:0.6480389 86:0.7433833 87:0.7381218 88:0.49019453 89:0.7898597 90:0.6842315 91:0.3483737 92:0.7496811 93:0.69021046 94:0.30827487 95:0.76546556 96:0.6911671 97:0.2512755 98:0.7826849 99:0.67984694 100:0.384088 101:0.73860013 102:0.6837532 103:0.4256218 104:0.7317443 105:0.6788106 106:0.35698342 107:0.7439413 
0.33429857821845327 0:0.90146685 1:0.8211894 2:0.80867344 3:0.9530453 4:0.9411671 5:0.93885523 6:0.7905772 7:0.7195472 8:0.7083068 9:0.8608099 10:0.8129783 11:0.8090721 12:0.7462532 13:0.5639349 14:0.5401786 15:0.62595665 16:0.238919 17:0.2002551 18:0.81265944 19:0.656808 20:0.6345663 21:0.9468272 22:0.9271365 23:0.9260204 24:0.9878827 25:0.9875638 26:0.9873246 27:0.85227996 28:0.7969547 29:0.78627235 30:0.6186224 31:0.2825255 32:0.2294324 33:0.67570156 34:0.17657845 35:0.1336097 36:0.9025829 37:0.8576212 38:0.8506856 39:0.9811065 40:0.9777583 41:0.9786352 42:0.9536033 43:0.94547194 44:0.9415657 45:0.90401787 46:0.87779015 47:0.8691805 48:0.6209343 49:0.41103315 50:0.34925064 51:0.609375 52:0.17849171 53:0.11814413 54:0.93327487 55:0.9181282 56:0.91430163 57:0.84646046 58:0.79615754 59:0.78396046 60:0.82389987 61:0.73708546 62:0.7240115 63:0.8322704 64:0.7084662 65:0.69459504 66:0.7911352 67:0.70184946 68:0.6800064 69:0.55373085 70:0.2212213 71:0.16342475 72:0.8223055 73:0.60578763 74:0.580118 75:0.6921237 76:0.44204402 77:0.41222894 78:0.6492347 79:0.381537 80:0.36041135 81:0.67059946 82:0.4650829 83:0.44730547 84:0.7433833 85:0.6571269 86:0.6394292 87:0.71739477 88:0.45376277 89:0.43718112 90:0.794882 91:0.3171237 92:0.26307398 93:0.7204241 94:0.2799745 95:0.24147002 96:0.5425702 97:0.20950255 98:0.17067921 99:0.5687978 100:0.35052615 101:0.31640625 102:0.70503825 103:0.39700255 104:0.37739158 105:0.73509246 106:0.3519611 107:0.34295282 
0.56184505261354 0:0.86328125 1:0.8017379 2:0.8725287 3:0.9520089 4:0.94403696 5:0.95384246 6:0.8006218 7:0.7289541 8:0.80484694 9:0.86591196 10:0.8116231 11:0.86989796 12:0.7737564 13:0.5961416 14:0.79966515 15:0.68415177 16:0.27279973 17:0.76841515 18:0.7190689 19:0.6082589 20:0.7198661 21:0.9308833 22:0.91191006 23:0.93040496 24:0.988919 25:0.9884407 26:0.988919 27:0.8729273 28:0.7980708 29:0.86941963 30:0.58378506 31:0.23748405 32:0.59072065 33:0.67028064 34:0.2051977 35:0.7515147 36:0.8761958 37:0.8405612 38:0.87595665 39:0.9783163 40:0.97552615 41:0.9783163 42:0.95583546 43:0.9449936 44:0.95711094 45:0.9132653 46:0.8799426 47:0.9135045 48:0.6250797 49:0.3605708 50:0.6157526 51:0.60379463 52:0.18566646 53:0.6519452 54:0.94220346 55:0.9235491 56:0.94507337 57:0.876993 58:0.8132972 59:0.8911033 60:0.82908165 61:0.74720985 62:0.84566325 63:0.8124203 64:0.70735013 65:0.83035713 66:0.7865912 67:0.69690686 68:0.7817283 69:0.6332908 70:0.26044324 71:0.68813777 72:0.76626277 73:0.6301818 74:0.7896205 75:0.7231346 76:0.4811862 77:0.7682557 78:0.6898119 79:0.40967792 80:0.7476084 81:0.7184311 82:0.4859694 83:0.76227677 84:0.73341835 85:0.6460459 86:0.7433036 87:0.73596936 88:0.4943399 89:0.7865115 90:0.6850287 91:0.34972894 92:0.7485651 93:0.6898916 94:0.30739796 95:0.7653061 96:0.69052935 97:0.2524713 98:0.7829241 99:0.6808833 100:0.3816167 101:0.74123085 102:0.6839923 103:0.4280931 104:0.73278064 105:0.6800861 106:0.3560268 107:0.7441805 
0.3485421963902932 0:0.15505421 1:0.25398597 2:0.23222257 3:0.094866075 4:0.19897959 5:0.18183993 6:0.060347576 7:0.16876595 8:0.1492347 9:0.043526787 10:0.14883609 11:0.12794961 12:0.025350764 13:0.13632016 14:0.11726722 15:0.008131377 16:0.110092476 17:0.089604594 18:0.16390306 19:0.2700893 20:0.24569516 21:0.09582271 22:0.20455995 23:0.18654336 24:0.09582271 25:0.19292092 26:0.16294643 27:0.13544324 28:0.23628826 29:0.19882016 30:0.03930166 31:0.13321109 32:0.11312181 33:0.035794005 34:0.13687819 35:0.11360013 36:0.12946428 37:0.23748405 38:0.22377232 39:0.12794961 40:0.21324936 41:0.18765944 42:0.3569037 43:0.4551977 44:0.36862245 45:0.35953444 46:0.4724968 47:0.3934949 48:0.18861607 49:0.27080676 50:0.22560586 51:0.30859375 52:0.41382334 53:0.3478954 54:0.3375319 55:0.44467473 56:0.3774713 57:0.4497768 58:0.5636958 59:0.46595982 60:0.3194356 61:0.43606505 62:0.35929528 63:0.072305486 64:0.16892539 65:0.1467634 66:0.06935587 67:0.16549745 68:0.14150192 69:0.10124362 70:0.20495854 71:0.17091836 72:0.6016422 73:0.73333865 74:0.6111288 75:0.3783482 76:0.49776787 77:0.42641902 78:0.099569514 79:0.20384248 80:0.17825255 81:0.04312819 82:0.14046556 83:0.12165178 84:0.024792729 85:0.12603635 86:0.10841837 87:0.007015306 88:0.10626595 89:0.08761161 90:0.20814732 91:0.32063138 92:0.28842473 93:0.11814413 94:0.2327009 95:0.20918368 96:0.078364156 97:0.1891741 98:0.16438138 99:0.04703444 100:0.1500319 101:0.12699299 102:0.027582908 103:0.13313138 104:0.11328125 105:0.016422193 106:0.109135844 107:0.090959825 
0.372167750910979 0:0.15322067 1:0.25199297 2:0.22975127 3:0.09478635 4:0.19786352 5:0.17960778 6:0.060347576 7:0.16772959 8:0.14899553 9:0.042410713 10:0.14915498 11:0.12763074 12:0.025271045 13:0.13632016 14:0.116470024 15:0.008131377 16:0.10945472 17:0.088329084 18:0.16757016 19:0.2713648 20:0.24864477 21:0.09773597 22:0.20440051 23:0.18742028 24:0.08609694 25:0.18534757 26:0.15696748 27:0.1147162 28:0.21556123 29:0.18152104 30:0.034279335 31:0.13081951 32:0.11144771 33:0.024952168 34:0.125 35:0.10371492 36:0.129544 37:0.23907845 38:0.22520727 39:0.11941964 40:0.20647322 41:0.18383291 42:0.3400829 43:0.43614477 44:0.35427296 45:0.36264348 46:0.4744898 47:0.39516902 48:0.18646365 49:0.2692921 50:0.2249681 51:0.30030292 52:0.40808356 53:0.34231505 54:0.3067602 55:0.4103954 56:0.35092473 57:0.42889032 58:0.5405772 59:0.44626912 60:0.33601722 61:0.45479912 62:0.3737245 63:0.08769133 64:0.18558674 65:0.15848215 66:0.08027742 67:0.1780134 68:0.15210459 69:0.117904976 70:0.22456951 71:0.1875 72:0.620456 73:0.7555006 74:0.6286671 75:0.40186542 76:0.52367663 77:0.44730547 78:0.10778061 79:0.20982143 80:0.18239796 81:0.044005103 82:0.14054528 83:0.12149235 84:0.023836097 85:0.125 86:0.10841837 87:0.0056600766 88:0.10530931 89:0.08769133 90:0.22839604 91:0.34303254 92:0.30636162 93:0.12205038 94:0.23772322 95:0.21468431 96:0.07716837 97:0.18757972 98:0.16493942 99:0.046875 100:0.14971301 101:0.12779018 102:0.02742347 103:0.1328125 104:0.11447704 105:0.016023597 106:0.107860334 107:0.090481505 
0.36129099539300824 0:0.18431123 1:0.53722894 2:0.6739477 3:0.2696907 4:0.7902583 5:0.9950574 6:0.19722576 7:0.5683195 8:0.72265625 9:0.12898597 10:0.33370537 11:0.4209981 12:0.15569197 13:0.4107143 14:0.51092154 15:0.20368303 16:0.5160236 17:0.6735491 18:0.16549745 19:0.45328444 20:0.5702328 21:0.2536671 22:0.7385204 23:0.9331952 24:0.22759885 25:0.68734056 26:0.85666454 27:0.15521365 28:0.4321588 29:0.5307717 30:0.16764987 31:0.42131695 32:0.52566963 33:0.16780931 34:0.40776467 35:0.5214445 36:0.1312181 37:0.34558356 38:0.444037 39:0.17689732 40:0.47074297 41:0.59375 42:0.22066326 43:0.63966835 44:0.7951212 45:0.23588967 46:0.7060746 47:0.88066006 48:0.2166773 49:0.56648594 50:0.72385204 51:0.16151148 52:0.3741231 53:0.4925861 54:0.16214924 55:0.43040496 56:0.54009885 57:0.16597576 58:0.4214764 59:0.52240115 60:0.16390306 61:0.42833227 62:0.5326849 63:0.24489796 64:0.7045599 65:0.89716196 66:0.27208227 67:0.7427455 68:0.970743 69:0.15234375 70:0.39110333 71:0.52535075 72:0.23573023 73:0.6327328 74:0.8188776 75:0.17099808 76:0.45121172 77:0.5711097 78:0.18901467 79:0.49489796 80:0.6302615 81:0.26251593 82:0.73309946 83:0.9392538 84:0.2688138 85:0.74521685 86:0.9760045 87:0.1854273 88:0.48445472 89:0.6466837 90:0.30939093 91:0.69108737 92:0.98995537 93:0.28643176 94:0.65959823 95:0.9271365 96:0.29918686 97:0.70240754 98:0.94977677 99:0.29990435 100:0.76251596 101:0.99601406 102:0.28172833 103:0.7635523 104:0.99083227 105:0.272162 106:0.70623404 107:0.93279654 
0.13048827523669992 0:0.8498884 1:0.15696748 2:0.50805163 3:0.87802935 4:0.14572704 5:0.52072704 6:0.87308675 7:0.13297194 8:0.5129943 9:0.82477677 10:0.1541773 11:0.49330357 12:0.7972736 13:0.31760204 14:0.5660077 15:0.9586256 16:0.6348055 17:0.8350606 18:0.81154335 19:0.15210459 20:0.484375 21:0.87436223 22:0.14708227 23:0.5231186 24:0.8761958 25:0.15553252 26:0.52901787 27:0.87228954 28:0.15736607 29:0.52646685 30:0.8104273 31:0.14492984 32:0.47887436 33:0.8093112 34:0.3631218 35:0.6010842 36:0.7878667 37:0.14979273 38:0.4696269 39:0.8733259 40:0.15290178 41:0.5234375 42:0.87635523 43:0.15513393 44:0.526706 45:0.8753986 46:0.15242347 47:0.5263074 48:0.8461416 49:0.13145727 50:0.49194834 51:0.7417092 52:0.22425064 53:0.47895408 54:0.8412787 55:0.14182079 56:0.49513713 57:0.87779015 58:0.15066965 59:0.52535075 60:0.87779015 61:0.15258291 62:0.5255102 63:0.8628029 64:0.14708227 65:0.5115593 66:0.7867506 67:0.1476403 68:0.46803254 69:0.87284756 70:0.46771365 71:0.692044 72:0.84685904 73:0.14867666 74:0.4991231 75:0.8729273 76:0.15122768 77:0.5220026 78:0.85347575 79:0.14660396 80:0.5062978 81:0.78308356 82:0.15856186 83:0.46691644 84:0.8529974 85:0.3650351 86:0.6475606 87:0.98421556 88:0.6529815 89:0.8663903 90:0.74234694 91:0.16183035 92:0.44555166 93:0.7754305 94:0.14038584 95:0.4509726 96:0.7685746 97:0.20248725 98:0.48676658 99:0.8785077 100:0.44921875 101:0.69555163 102:0.9860491 103:0.64716196 104:0.86383927 105:0.98915815 106:0.62284756 107:0.8516422 
0.46280025819583515 0:0.93160075 1:0.7444994 3:0.68973213 4:0.5114796 6:0.59933037 7:0.3968431 9:0.88783485 10:0.69690686 12:0.9317602 13:0.73915815 15:0.92833227 16:0.7303093 18:0.64772004 19:0.47576532 21:0.62340564 22:0.44602996 24:0.5674426 25:0.38026148 27:0.6528221 28:0.49274555 30:0.6293846 31:0.45703125 33:0.6677296 34:0.49513713 36:0.60722256 37:0.39237884 39:0.56234056 40:0.37515944 42:0.54910713 43:0.3581792 45:0.63592154 46:0.44363838 48:0.61535394 49:0.4231505 51:0.62364477 52:0.44140625 54:0.8963648 55:0.70990115 57:0.69308037 58:0.50852996 60:0.57095027 61:0.36360013 63:0.8836097 64:0.66597575 66:0.9203603 67:0.7360491 69:0.9288903 70:0.74083227 72:0.9300064 73:0.7491231 75:0.71316963 76:0.51283485 78:0.55397004 79:0.3478157 81:0.8668686 82:0.66246814 84:0.9359853 85:0.7511958 87:0.8978795 88:0.6929209 90:0.87834823 91:0.6886161 93:0.7204241 94:0.5389828 96:0.56345665 97:0.3849649 99:0.91597575 100:0.71372765 102:0.93128186 103:0.6989796 105:0.77726406 106:0.4881218 
5.676996317487678E-4 0:0.6492347 1:0.16398278 2:0.7063935 3:0.5772481 4:0.0542889 5:0.58458227 6:0.5723055 7:0.022082271 8:0.5621811 9:0.6015625 10:0.06584822 11:0.62053573 12:0.73596936 13:0.17729592 14:0.8186384 15:0.8215083 16:0.17729592 17:0.9516103 18:0.5986926 19:0.021364795 20:0.58697385 21:0.68909436 23:0.65959823 24:0.69196427 26:0.6625478 27:0.6776945 29:0.6498724 30:0.60841835 31:0.038424745 32:0.6135204 33:0.7574139 34:0.17466518 35:0.85953444 36:0.64078444 37:0.0015146683 38:0.6200574 39:0.66589606 40:0.04304847 41:0.65521365 42:0.67753506 43:0.080117986 44:0.6816805 45:0.6518654 46:0.019212373 47:0.63584185 48:0.6125638 49:0.001036352 50:0.5893654 51:0.6804847 52:0.13887118 53:0.7404337 54:0.60714287 55:0.05867347 56:0.61535394 57:0.8020568 58:0.23453444 59:0.88058037 60:0.84853315 61:0.26323342 62:0.95009565 63:0.6901307 64:0.16430166 65:0.74529654 66:0.53770727 67:0.01036352 68:0.5243144 69:0.6801658 70:0.13217475 71:0.7523119 72:0.60746175 73:0.16087373 74:0.6730708 75:0.8616869 76:0.24497768 77:0.97967154 78:0.845743 79:0.18781888 80:0.9754464 81:0.7236129 82:0.19786352 83:0.81760204 84:0.5104432 85:0.08856824 86:0.5465561 87:0.7804528 88:0.18319516 89:0.89620537 90:0.78977996 91:0.23573023 92:0.8966837 93:0.84996814 94:0.2166773 95:0.9765625 96:0.83992344 97:0.18008609 98:0.97441006 99:0.75470346 100:0.19515306 101:0.8645568 102:0.7418686 103:0.20240752 104:0.84398913 105:0.8295599 106:0.17275192 107:0.96651787 
0.32511776987377583 0:0.995456 1:0.19523278 2:0.07190689 3:0.8903061 4:0.15736607 5:0.06720345 6:0.62683356 7:0.09709822 8:0.026945153 9:0.57653064 10:0.10562819 11:0.033402424 12:0.6194994 13:0.1307398 14:0.05229592 15:0.69866073 16:0.13241391 17:0.07294324 18:0.99609375 19:0.20089285 20:0.08410396 21:0.91629463 22:0.15856186 23:0.068797834 24:0.67378825 25:0.10682398 26:0.03778699 27:0.59964925 28:0.124282524 29:0.04057717 30:0.66470027 31:0.14086416 32:0.053730868 33:0.7389987 34:0.13512436 35:0.08115434 36:0.7123724 37:0.15098852 38:0.051737882 39:0.5845026 40:0.12603635 41:0.038504463 42:0.5522959 43:0.14373405 44:0.025829082 45:0.6142379 46:0.16661352 47:0.028778698 48:0.6147959 49:0.16183035 50:0.022720026 51:0.6788106 52:0.13847257 53:0.053890307 54:0.58083546 55:0.14022641 56:0.02335778 57:0.5894452 58:0.14947385 59:0.027104592 60:0.6901307 61:0.16414222 62:0.05245536 63:0.7560587 64:0.16589604 65:0.077487245 66:0.66717154 67:0.13552296 68:0.055404976 69:0.6270727 70:0.11806441 71:0.036910076 72:0.8823342 73:0.1657366 74:0.06911671 75:0.75382656 76:0.15066965 77:0.07461735 78:0.78396046 79:0.14740115 80:0.09191646 81:0.64046556 82:0.123086736 83:0.06911671 84:0.53778696 85:0.109614156 86:0.04161352 87:0.70033485 88:0.11710778 89:0.07023278 90:0.9958546 91:0.1875 92:0.09518495 93:0.86320156 94:0.15927933 95:0.095264666 96:0.596301 97:0.113042094 98:0.055723853 99:0.57876277 100:0.11941964 101:0.045998085 102:0.78483737 103:0.15322067 104:0.102200255 105:0.9144611 106:0.15409757 107:0.13097896 
0.2710177222060098 0:0.66788906 1:0.17873086 2:0.732382 3:0.58872765 4:0.07421875 5:0.6029974 6:0.58203125 7:0.040656887 8:0.5818718 9:0.611368 10:0.08043686 11:0.641183 12:0.7484853 13:0.18486926 14:0.83992344 15:0.82158804 16:0.17458546 17:0.95503825 18:0.59064096 19:0.02734375 20:0.5825096 21:0.6851084 22:1.5943877E-4 23:0.6559311 24:0.69021046 26:0.6605548 27:0.66964287 29:0.64333546 30:0.60953444 31:0.04671556 32:0.6208546 33:0.76666135 34:0.17944834 35:0.8738839 36:0.6442921 37:0.001833546 38:0.62436223 39:0.65983737 40:0.028140943 41:0.6449298 42:0.6614318 43:0.05452806 44:0.658801 45:0.65489477 46:0.011639031 47:0.6354432 48:0.6131218 49:0.0011160715 50:0.5894452 51:0.68439096 52:0.14285715 53:0.74617344 54:0.6088967 55:0.052375637 56:0.6167889 57:0.7829241 58:0.22010523 59:0.85546875 60:0.82589287 61:0.24912308 62:0.91796875 63:0.68072385 64:0.15202487 65:0.73046875 66:0.54464287 67:0.007573342 68:0.53109056 69:0.67458546 70:0.12962373 71:0.7436224 72:0.60251915 73:0.15433674 74:0.6635045 75:0.86415815 76:0.2492028 77:0.98046875 78:0.8474171 79:0.19196428 80:0.97632337 81:0.7288744 82:0.20001595 83:0.82222575 84:0.50215244 85:0.07844388 86:0.53714925 87:0.77248085 88:0.17960778 89:0.8845663 90:0.77367663 91:0.23421556 92:0.87627554 93:0.8510842 94:0.21922831 95:0.9757653 96:0.83904654 97:0.1780931 98:0.9742506 99:0.7482462 100:0.1961097 101:0.85722256 102:0.72233737 103:0.19834183 104:0.82222575 105:0.8301977 106:0.176419 107:0.96603954 
0.37519113640943524 0:0.17578125 1:0.5102041 2:0.63839287 3:0.26857463 4:0.7914541 5:0.99497765 6:0.20408164 7:0.59247446 8:0.7523916 9:0.12802933 10:0.3294005 11:0.41470027 12:0.15728635 13:0.4152583 14:0.5161033 15:0.19172513 16:0.48708546 17:0.63002235 18:0.15505421 19:0.42139667 20:0.53140944 21:0.24649234 22:0.71221304 23:0.9021843 24:0.2376435 25:0.7135682 26:0.8918208 27:0.1623884 28:0.45830676 29:0.56728315 30:0.16549745 31:0.42036033 32:0.5209662 33:0.16557717 34:0.40345982 35:0.51060265 36:0.13010204 37:0.3453444 38:0.44539222 39:0.16932398 40:0.44889987 41:0.5685587 42:0.21245217 43:0.6057079 44:0.7543048 45:0.23987564 46:0.7195472 47:0.8987564 48:0.22648278 49:0.6040338 50:0.76873404 51:0.16509885 52:0.38480547 53:0.5040657 54:0.1690051 55:0.45655292 56:0.5740593 57:0.1640625 58:0.41932398 59:0.5197704 60:0.15856186 61:0.41175064 62:0.51139987 63:0.23740433 64:0.68128186 65:0.86447704 66:0.27535078 67:0.7537468 68:0.9834981 69:0.15577169 70:0.40601084 71:0.5452009 72:0.24768814 73:0.6615115 74:0.8589764 75:0.17849171 76:0.47608417 77:0.6033163 78:0.19100766 79:0.5015147 80:0.6410236 81:0.26132014 82:0.72815686 83:0.93351406 84:0.27168366 85:0.7558195 86:0.9852519 87:0.19308035 88:0.50191325 89:0.6694037 90:0.319037 91:0.6866231 92:0.9925064 93:0.29137436 94:0.6649394 95:0.94913906 96:0.30293366 97:0.70041454 98:0.96277106 99:0.3088329 100:0.7543846 101:0.99601406 102:0.2824458 103:0.76546556 104:0.99346304 105:0.2771843 106:0.71476406 107:0.9478635 
0.3949473691243506 0:0.9951371 1:0.19419643 2:0.071029976 3:0.8889509 4:0.15816326 5:0.06847896 6:0.6250797 7:0.09941008 8:0.02861926 9:0.5687978 10:0.10379464 11:0.03005421 12:0.60379463 13:0.1278699 14:0.04910714 15:0.6947545 16:0.13321109 17:0.07549426 18:0.99609375 19:0.20041454 20:0.08163265 21:0.9453125 22:0.16462053 23:0.0703125 24:0.69754463 25:0.10778061 26:0.038743623 27:0.6057079 28:0.12109375 29:0.042091835 30:0.67378825 31:0.13823342 32:0.056521047 33:0.7183514 34:0.13097896 35:0.07780612 36:0.74864477 37:0.15561225 38:0.055723853 39:0.6134407 40:0.12723215 41:0.042490434 42:0.5414541 43:0.13719706 44:0.026785715 45:0.61160713 46:0.1656569 47:0.029655613 48:0.6172672 49:0.1623884 50:0.023836097 51:0.67259246 52:0.13974808 53:0.0522162 54:0.5629783 55:0.13727678 56:0.021683674 57:0.5727041 58:0.14708227 59:0.02232143 60:0.6603954 61:0.1619898 62:0.044882014 63:0.74410075 64:0.167331 65:0.07238521 66:0.6796875 67:0.14405294 68:0.055006377 69:0.61702806 70:0.12029655 71:0.03148916 72:0.85491073 73:0.16191007 74:0.062739156 75:0.73995537 76:0.14995217 77:0.06808036 78:0.7963967 79:0.15114796 80:0.09231505 81:0.6863839 82:0.12970345 83:0.07868303 84:0.54958546 85:0.11152742 86:0.045041453 87:0.67410713 88:0.11447704 89:0.06082589 90:0.9958546 91:0.18789859 92:0.09422832 93:0.8634407 94:0.16087373 95:0.09494579 96:0.59446746 97:0.113520406 98:0.057955995 99:0.5453603 100:0.114397325 101:0.04129464 102:0.74202806 103:0.14819834 104:0.09024235 105:0.88504463 106:0.15098852 107:0.124362245 
0.5434381415216679 0:0.85467154 1:0.15625 2:0.5098852 3:0.8782685 4:0.14333546 5:0.5199298 6:0.8742028 7:0.13536352 8:0.51403064 9:0.82621175 10:0.1579241 11:0.49728954 12:0.7965561 13:0.31273916 14:0.5645727 15:0.95822704 16:0.6328922 17:0.8345026 18:0.8141741 19:0.15074936 20:0.48429528 21:0.87595665 22:0.14803891 23:0.52272004 24:0.8773916 25:0.15664859 26:0.52941644 27:0.8726881 28:0.15489477 29:0.5259885 30:0.8098693 31:0.14245854 32:0.47727996 33:0.8022162 34:0.36296237 35:0.59685904 36:0.80078125 37:0.14867666 38:0.47472894 39:0.87515944 40:0.15226403 41:0.5239158 42:0.8773916 43:0.15441646 44:0.5268654 45:0.874442 46:0.15202487 47:0.5260682 48:0.83816963 49:0.12755102 50:0.4847736 51:0.7495217 52:0.25629783 53:0.5016741 54:0.8498087 55:0.14405294 56:0.5011958 57:0.87858737 58:0.15186544 59:0.52622765 60:0.8778699 61:0.15242347 62:0.52566963 63:0.85339606 64:0.14524873 65:0.50510204 66:0.78284436 67:0.16286671 68:0.47600445 69:0.89540815 70:0.5127551 71:0.73309946 72:0.8498884 73:0.14875638 74:0.501993 75:0.8706154 76:0.15035076 77:0.52072704 78:0.84446746 79:0.14485013 80:0.49976084 81:0.77997446 82:0.1768176 83:0.4777583 84:0.87802935 85:0.41509885 86:0.6890147 87:0.9905134 88:0.6689254 89:0.8784279 90:0.74290496 91:0.17602041 92:0.45535713 93:0.7618782 94:0.14851722 95:0.453125 96:0.7748724 97:0.23907845 98:0.51379144 99:0.90234375 100:0.49641263 101:0.7378029 102:0.9925861 103:0.660794 104:0.87436223 105:0.98365754 106:0.58816963 107:0.82995856 
0.3202580982663826 0:0.81377554 1:0.8356186 2:0.8423151 3:0.9436384 4:0.9547991 5:0.9588648 6:0.7378029 7:0.7960778 8:0.81935585 9:0.8160077 10:0.8345026 11:0.84159756 12:0.5728635 13:0.6605548 14:0.6941964 15:0.287787 16:0.48947704 17:0.5926339 18:0.64620537 19:0.69403696 20:0.7101403 21:0.9301658 22:0.93909436 23:0.94316006 24:0.98748404 25:0.9878029 26:0.98748404 27:0.80133927 28:0.832669 29:0.8428731 30:0.3030931 31:0.4630899 32:0.52790177 33:0.1998565 34:0.39166135 35:0.4802296 36:0.85315686 37:0.86615115 38:0.86902106 39:0.9786352 40:0.9785555 41:0.979831 42:0.94467473 43:0.95153064 44:0.95328444 45:0.8796237 46:0.90561223 47:0.9135045 48:0.4346301 49:0.5844228 50:0.6529815 51:0.19188456 52:0.35459185 53:0.44355866 54:0.9194834 55:0.9281728 56:0.9312022 57:0.799426 58:0.8273278 59:0.83808994 60:0.73541135 61:0.7723214 62:0.78770727 63:0.7164381 64:0.7977519 65:0.8296397 66:0.7236129 67:0.8083546 68:0.85140306 69:0.23341836 70:0.3762755 71:0.45814732 72:0.6234853 73:0.7397162 74:0.79559946 75:0.45384246 76:0.5772481 77:0.62946427 78:0.4136639 79:0.5642538 80:0.6310587 81:0.5161033 82:0.69507337 83:0.7692921 84:0.68933356 85:0.7894611 86:0.83577806 87:0.47520727 88:0.5902423 89:0.6480389 90:0.38839287 91:0.6084981 92:0.79121494 93:0.3581792 94:0.57948023 95:0.7552615 96:0.33657527 97:0.6015625 98:0.77989477 99:0.44467473 100:0.65720665 101:0.77240115 102:0.45663264 103:0.67578125 104:0.7804528 105:0.41326532 106:0.62882656 107:0.7418686 
0.11426613029134718 0:0.7940051 1:0.8168048 2:0.826132 3:0.9350287 4:0.9487404 5:0.9545599 6:0.71492344 7:0.78348213 8:0.81529015 9:0.79241073 10:0.81234056 11:0.82366073 12:0.6085778 13:0.6879783 14:0.7199458 15:0.29496172 16:0.49473852 17:0.59502554 18:0.63305163 19:0.68152106 20:0.7008131 21:0.9206792 22:0.9320791 23:0.93734056 24:0.98796237 25:0.98716515 26:0.98796237 27:0.82214606 28:0.84964925 29:0.85921556 30:0.32549426 31:0.48198342 32:0.54815054 33:0.20248725 34:0.39413264 35:0.48270088 36:0.8227838 37:0.83952487 38:0.8442283 39:0.9730548 40:0.97377235 41:0.97528696 42:0.9543208 43:0.9572704 44:0.9603795 45:0.8902264 46:0.91071427 47:0.9184471 48:0.43821746 49:0.5856186 50:0.654257 51:0.19435586 52:0.3615274 53:0.4527264 54:0.9267379 55:0.93359375 56:0.93558675 57:0.8282047 58:0.85052615 59:0.8616869 60:0.7614796 61:0.79033804 62:0.8026945 63:0.7290338 64:0.8000638 65:0.8290019 66:0.7250478 67:0.8107462 68:0.8532366 69:0.23421556 70:0.38105866 71:0.46229273 72:0.6591996 73:0.75972575 74:0.80867344 75:0.47146046 76:0.58657527 77:0.63671875 78:0.4375 79:0.57015306 80:0.6302615 81:0.5101244 82:0.68526787 83:0.7594866 84:0.70033485 85:0.7957589 86:0.8394452 87:0.47648278 88:0.58203125 89:0.63871175 90:0.39827806 91:0.61415815 92:0.7876276 93:0.3569037 94:0.5816327 95:0.74872446 96:0.34080037 97:0.60227996 98:0.7667411 99:0.4441167 100:0.66183037 101:0.77678573 102:0.47265625 103:0.68470985 104:0.78228635 105:0.42131695 106:0.63464606 107:0.74234694 
0.379045921994912 0:0.6570472 1:0.17227359 2:0.72002554 3:0.57708865 4:0.059072066 5:0.5873724 6:0.57102996 7:0.022002552 8:0.5632972 9:0.59510523 10:0.060507014 11:0.61447704 12:0.72385204 13:0.17147641 14:0.80540496 15:0.8237404 16:0.18112245 17:0.9514509 18:0.58777106 19:0.02726403 20:0.5834662 21:0.6863839 22:1.5943877E-4 23:0.6597577 24:0.6918846 26:0.6625478 27:0.6804847 29:0.65345985 30:0.6065051 31:0.031090561 32:0.60953444 33:0.7463329 34:0.16988201 35:0.8446269 36:0.6353635 37:0.001833546 38:0.61647004 39:0.6635842 40:0.0386639 41:0.6541773 42:0.67952806 43:0.08163265 44:0.6848693 45:0.65178573 46:0.02232143 47:0.63879144 48:0.62228954 49:7.971939E-4 50:0.59797513 51:0.6682079 52:0.1307398 53:0.723294 54:0.5912787 55:0.049824618 56:0.6004464 57:0.78977996 58:0.22600447 59:0.8689413 60:0.8498087 61:0.26419005 62:0.9532047 63:0.7028061 64:0.17586097 65:0.76251596 66:0.544324 67:0.013871173 68:0.5321269 69:0.669324 70:0.12555803 71:0.7342953 72:0.5942283 73:0.15369898 74:0.6570472 75:0.8598533 76:0.24912308 77:0.97839606 78:0.84446746 79:0.18805803 80:0.9766422 81:0.74242663 82:0.2047194 83:0.8416773 84:0.50757337 85:0.09016263 86:0.5469547 87:0.7713648 88:0.18096301 89:0.88209504 90:0.78922194 91:0.23525192 92:0.895169 93:0.8462213 94:0.21922831 95:0.97209823 96:0.8391263 97:0.17944834 98:0.97464925 99:0.7641901 100:0.19658801 101:0.8765147 102:0.7329401 103:0.20264669 104:0.8353795 105:0.8336256 106:0.17920919 107:0.96683675 
0.06745925006011974 0:0.115672834 1:0.72010523 2:0.16055484 3:0.10817921 4:0.7448182 5:0.16191007 6:0.09980867 7:0.44602996 8:0.07413903 9:0.13727678 10:0.56353635 11:0.094387755 12:0.17315051 13:0.7109375 14:0.13376914 15:0.18239796 16:0.7091837 17:0.13042092 18:0.19172513 19:0.533801 20:0.06736288 21:0.12492028 22:0.7057557 23:0.14756058 24:0.12930484 25:0.6591199 26:0.1377551 27:0.15138711 28:0.68845665 29:0.14213967 30:0.167331 31:0.6968272 32:0.13337053 33:0.17243303 34:0.69746494 35:0.1246014 36:0.17785396 37:0.5131537 38:0.0653699 39:0.14190051 40:0.6128827 41:0.12101403 42:0.13966836 43:0.76466835 44:0.1690051 45:0.14190051 46:0.59159756 47:0.11710778 48:0.17179528 49:0.47305486 50:0.06425383 51:0.14987245 52:0.55532527 53:0.06816008 54:0.07087053 55:0.73533165 56:0.1735491 57:0.10427296 58:0.7067921 59:0.16127232 60:0.13010204 61:0.7211416 62:0.16111289 63:0.15098852 64:0.6742666 65:0.13584183 66:0.20583546 67:0.47520727 68:0.043925382 69:0.21572067 70:0.46922833 71:0.025908802 72:0.054049745 73:0.8022162 74:0.20240752 75:0.08968431 76:0.705676 77:0.17155612 78:0.10666454 79:0.5003986 80:0.10323661 81:0.13560268 82:0.7308673 83:0.15601084 84:0.16509885 85:0.6257972 86:0.10682398 87:0.20647322 88:0.5040657 89:0.052535076 90:0.06234056 91:0.86096936 92:0.22193877 93:0.08561862 94:0.6430166 95:0.15648916 96:0.1179847 97:0.6012436 98:0.12715243 99:0.1398278 100:0.7682557 101:0.17251275 102:0.16446109 103:0.76498723 104:0.16589604 105:0.17745535 106:0.7158004 107:0.14907525 
0.5356162596458052 0:0.12205038 1:0.7008131 2:0.15186544 3:0.10833865 4:0.7444994 5:0.16151148 6:0.10259885 7:0.46125638 8:0.07987883 9:0.13966836 10:0.57134885 11:0.099569514 12:0.17235331 13:0.71069837 14:0.13520408 15:0.17984694 16:0.70735013 17:0.12755102 18:0.20041454 19:0.5248724 20:0.058912627 21:0.12890625 22:0.6956314 23:0.14158164 24:0.13193558 25:0.67865115 26:0.14548789 27:0.14979273 28:0.67992663 29:0.14373405 30:0.16462053 31:0.68152106 32:0.13289222 33:0.16956314 34:0.6936384 35:0.12340561 36:0.1690051 37:0.53483737 38:0.07517538 39:0.13998725 40:0.60658485 41:0.11846301 42:0.1390306 43:0.7664222 44:0.16988201 45:0.13974808 46:0.5972577 47:0.11878189 48:0.17410715 49:0.45790815 50:0.059390943 51:0.15242347 52:0.53882337 53:0.060746174 54:0.06473214 55:0.7515147 56:0.18032525 57:0.09845345 58:0.71875 59:0.16581632 60:0.12603635 61:0.7089445 62:0.15904018 63:0.14867666 64:0.68734056 65:0.14030612 66:0.20049426 67:0.48509246 68:0.04838967 69:0.2216199 70:0.4683514 71:0.023118623 72:0.054368623 73:0.8042889 74:0.2047991 75:0.08928572 76:0.70471936 77:0.17147641 78:0.10530931 79:0.4852519 80:0.09805485 81:0.13496493 82:0.7315051 83:0.1554528 84:0.1623884 85:0.64421237 86:0.11631059 87:0.20033482 88:0.5229592 89:0.06234056 90:0.061782524 91:0.86503506 92:0.22401148 93:0.08458227 94:0.6619898 95:0.16183035 96:0.11686862 97:0.61654973 98:0.13432717 99:0.13934949 100:0.77152425 101:0.17402743 102:0.16358419 103:0.7660236 104:0.16605549 105:0.17793368 106:0.7366869 107:0.15497449 
0.26200600076922687 0:0.9300861 1:0.7418686 3:0.69953763 4:0.5238361 6:0.5760523 7:0.3765944 9:0.8663903 10:0.6761798 12:0.9325574 13:0.74003506 15:0.9288106 16:0.7299904 18:0.6663744 19:0.49944195 21:0.6455676 22:0.46707588 24:0.5711894 25:0.38129783 27:0.674426 28:0.5102041 30:0.6478795 31:0.47632334 33:0.68933356 34:0.51690054 36:0.57716835 37:0.36567283 39:0.55771685 40:0.37013713 42:0.5485491 43:0.35929528 45:0.6143176 46:0.4252232 48:0.58282846 49:0.3915019 51:0.5926339 52:0.4131856 54:0.8738042 55:0.6857462 57:0.7022481 58:0.51961094 60:0.55397004 61:0.35451213 63:0.8676658 64:0.64819837 66:0.8959662 67:0.71197385 69:0.91390306 70:0.72927296 72:0.9316805 73:0.75334823 75:0.7245695 76:0.53061223 78:0.52160394 79:0.32206634 81:0.8436703 82:0.63926977 84:0.93534756 85:0.7503189 87:0.91334504 88:0.71157527 90:0.88934946 91:0.70296556 93:0.72146046 94:0.5416135 96:0.5394611 97:0.36439732 99:0.89564735 100:0.69220346 102:0.93351406 103:0.71277106 105:0.7936065 106:0.5148278 
-0.3666354028322207 0:0.41334504 1:0.74314415 2:0.99609375 3:0.49067283 4:0.9542411 5:0.99609375 6:0.46890944 7:0.88879144 8:0.99609375 9:0.70184946 10:0.83777106 11:0.99609375 12:0.827567 13:0.88416773 14:0.99609375 15:0.51004463 16:0.7685746 17:0.99609375 18:0.5410555 19:0.76753825 20:0.9956154 21:0.4787149 22:0.9243463 23:0.99609375 24:0.46683672 25:0.9192443 26:0.99609375 27:0.62404335 28:0.8199936 29:0.99609375 30:0.91677296 31:0.9423629 32:0.99609375 33:0.73333865 34:0.81839925 35:0.99609375 36:0.7552615 37:0.8408004 38:0.99521685 39:0.65848213 40:0.84566325 41:0.99609375 42:0.49521685 43:0.86654973 44:0.99609375 45:0.45129144 46:0.87890625 47:0.99609375 48:0.53778696 49:0.8354592 50:0.99609375 51:0.65027106 52:0.78188777 53:0.99609375 54:0.66342473 55:0.83410394 56:0.99609375 57:0.9658004 58:0.9770408 59:0.99609375 60:0.70958227 61:0.83721304 62:0.99609375 63:0.4486607 64:0.8779496 65:0.99609375 66:0.49720982 67:0.93726087 68:0.99609375 69:0.39142218 70:0.70240754 71:0.99609375 72:0.47831634 73:0.8380102 74:0.99609375 75:0.6577647 76:0.8227838 77:0.99609375 78:0.5942283 79:0.817044 80:0.99609375 81:0.47177935 82:0.90760523 83:0.99609375 84:0.49705037 85:0.9331952 86:0.99609375 87:0.35076532 88:0.7257653 89:0.99609375 90:0.44555166 91:0.79966515 92:0.99609375 93:0.4165338 94:0.7779815 95:0.99609375 96:0.50940686 97:0.8845663 98:0.99609375 99:0.53348213 100:0.9371014 101:0.99609375 102:0.4822226 103:0.91541773 104:0.99609375 105:0.41860652 106:0.85220027 107:0.99609375 
-0.3175757923135636 0:0.99609375 1:0.9519292 2:0.13408801 3:0.97377235 4:0.8677455 5:0.2775032 6:0.9600606 7:0.8177615 8:0.6030772 9:0.97353315 10:0.87021685 11:0.123007014 12:0.99609375 13:0.9399713 14:0.13751595 15:0.9959343 16:0.89859694 17:0.13512436 18:0.95328444 19:0.8379305 20:0.34279338 21:0.94060904 22:0.765625 23:0.29910713 24:0.9375797 25:0.7326212 26:0.42163584 27:0.9448342 28:0.7993463 29:0.25095662 30:0.95527744 31:0.8354592 32:0.38217473 33:0.9520089 34:0.8021365 35:0.32023278 36:0.9494579 37:0.77240115 38:0.5824298 39:0.9207589 40:0.7208227 41:0.4259407 42:0.9292092 43:0.7208227 44:0.4419643 45:0.9226722 46:0.7430644 47:0.36128828 48:0.94052935 49:0.82334185 50:0.5749362 51:0.9339923 52:0.78778696 53:0.5046237 54:0.97265625 55:0.82916135 56:0.107860334 57:0.94555163 58:0.77447385 59:0.19029018 60:0.9378189 61:0.749442 62:0.4888393 63:0.9720185 64:0.8518814 65:0.14261799 66:0.9769611 67:0.9144611 68:0.13584183 69:0.98038906 70:0.82621175 71:0.13911033 72:0.99609375 73:0.9204401 74:0.13249362 75:0.95870537 76:0.7731186 77:0.21906888 78:0.94108737 79:0.73102677 80:0.55628186 81:0.97034436 82:0.75302935 83:0.11981824 84:0.9956154 85:0.9065689 86:0.13560268 87:0.97297513 88:0.7889828 89:0.1221301 90:0.95208865 91:0.7855548 92:0.11662947 93:0.94132656 94:0.70408165 95:0.16828763 96:0.9281728 97:0.69595027 98:0.40983737 99:0.9768814 100:0.7769452 101:0.115194514 102:0.9945791 103:0.7358897 104:0.12492028 105:0.94666773 106:0.58258927 107:0.0621014 
-0.7606322947868713 0:0.9233099 1:0.48333865 2:0.98413587 3:0.9236288 4:0.63089925 5:0.98254144 6:0.92785394 7:0.6637436 8:0.9820631 9:0.9217953 10:0.5086097 11:0.97727996 12:0.9501754 13:0.3042889 14:0.97879463 15:0.98652744 16:0.22743942 17:0.984933 18:0.9513712 19:0.79296875 20:0.9925064 21:0.9953763 22:0.99282527 23:0.99609375 24:0.99601406 25:0.9958546 26:0.99609375 27:0.9887596 28:0.96117663 29:0.995456 30:0.9219547 31:0.5416932 32:0.9809471 33:0.9610172 34:0.2249681 35:0.9819834 36:0.9688297 37:0.8746014 38:0.99601406 39:0.9346301 40:0.6927615 41:0.99609375 42:0.9333546 43:0.6666932 44:0.99609375 45:0.95870537 46:0.80891263 47:0.9944994 48:0.93845665 49:0.7483259 50:0.9823023 51:0.9136639 52:0.22720025 53:0.9614955 54:0.9233099 55:0.5610651 56:0.99609375 57:0.9604592 58:0.5505421 59:0.99609375 60:0.97632337 61:0.5570791 62:0.99609375 63:0.9182079 64:0.4343112 65:0.9867666 66:0.9036193 67:0.57310265 68:0.9817443 69:0.92745537 70:0.18757972 71:0.9721779 72:0.86846304 73:0.31202167 74:0.9374203 75:0.99529654 76:0.45416135 77:0.9916295 78:0.99609375 79:0.42219388 80:0.99091196 81:0.91677296 82:0.28435907 83:0.95998085 84:0.85291773 85:0.21755421 86:0.9476244 87:0.9646046 88:0.17211416 89:0.98772323 90:0.92833227 91:0.23588967 92:0.939493 93:0.9944994 94:0.29799107 95:0.98158485 96:0.99609375 97:0.3026148 98:0.979831 99:0.92378825 100:0.22536671 101:0.93271685 102:0.9215561 103:0.17649873 104:0.94347894 105:0.9751276 106:0.1768176 107:0.99059314 
-0.3534006567272478 0:0.40274236 1:0.734933 2:0.99609375 3:0.48780292 4:0.95240754 5:0.99609375 6:0.46619898 7:0.89628506 8:0.99609375 9:0.67578125 10:0.83322704 11:0.99609375 12:0.8107462 13:0.8764349 14:0.99609375 15:0.50645727 16:0.7711256 17:0.99609375 18:0.5295759 19:0.76084185 20:0.9956154 21:0.4803093 22:0.9292092 23:0.99609375 24:0.46436542 25:0.92115754 26:0.99609375 27:0.6253189 28:0.8223852 29:0.99609375 30:0.9279337 31:0.95089287 32:0.99609375 33:0.7389987 34:0.8237404 35:0.99609375 36:0.7398756 37:0.83322704 38:0.9947385 39:0.64907527 40:0.8470185 41:0.99609375 42:0.49147004 43:0.8714923 44:0.99609375 45:0.45503828 46:0.87595665 47:0.99609375 48:0.5483897 49:0.8359375 50:0.99609375 51:0.6666135 52:0.7944834 53:0.99609375 54:0.6611926 55:0.83410394 56:0.99609375 57:0.9638074 58:0.97632337 59:0.99609375 60:0.71197385 61:0.8388074 62:0.99609375 63:0.4499362 64:0.87484056 65:0.99609375 66:0.5011161 67:0.939493 68:0.99609375 69:0.40529338 70:0.71484375 71:0.99609375 72:0.47959185 73:0.8376913 74:0.99609375 75:0.6745057 76:0.8263712 77:0.99609375 78:0.61296237 79:0.8157685 80:0.99609375 81:0.46827167 82:0.9001116 83:0.99609375 84:0.49816644 85:0.93447065 86:0.99609375 87:0.35586736 88:0.72640306 89:0.99609375 90:0.45416135 91:0.8101084 92:0.99609375 93:0.41645408 94:0.7759088 95:0.99609375 96:0.5058195 97:0.87858737 98:0.99609375 99:0.5309311 100:0.9391741 101:0.99609375 102:0.48636797 103:0.91916454 104:0.99609375 105:0.41764987 106:0.84885204 107:0.99609375 
-0.524622628610176 0:0.99609375 1:0.5330038 2:0.2006537 3:0.9748087 4:0.49250638 5:0.20854592 6:0.93096304 7:0.39708227 8:0.23676658 9:0.9478635 10:0.52248085 11:0.42729592 12:0.97560585 13:0.64190054 14:0.5896843 15:0.97720027 16:0.5188935 17:0.4893176 18:0.99609375 19:0.61336094 20:0.26012436 21:0.9907526 22:0.59215564 23:0.272162 24:0.9777583 25:0.54623723 26:0.32469708 27:0.9760045 28:0.6605548 29:0.5592315 30:0.9780772 31:0.6554528 32:0.5952647 33:0.9594228 34:0.44714606 35:0.40856186 36:0.9741709 37:0.6410236 38:0.41183037 39:0.97839606 40:0.69929844 41:0.5271046 42:0.98740435 43:0.86296237 44:0.8145727 45:0.99601406 46:0.97847575 47:0.97592473 48:0.99601406 49:0.9820631 50:0.98246175 51:0.9851722 52:0.7173151 53:0.7054369 54:0.9650032 55:0.76578444 56:0.7204241 57:0.9744898 58:0.8342634 59:0.8029337 60:0.9851722 61:0.7787787 62:0.70990115 63:0.98038906 64:0.6938776 65:0.60220027 66:0.97552615 67:0.6171875 68:0.557956 69:0.966757 70:0.5659279 71:0.5500638 72:0.96077806 73:0.44148597 74:0.2327009 75:0.9485013 76:0.49513713 77:0.33832908 78:0.96946746 79:0.5538106 80:0.39070472 81:0.97991073 82:0.595743 83:0.4799107 84:0.9683514 85:0.6019611 86:0.55596304 87:0.94148594 88:0.33242986 89:0.31106505 90:0.99609375 91:0.37675384 92:0.19228317 93:0.9770408 94:0.4712213 95:0.30117986 96:0.94435585 97:0.4803093 98:0.4075255 99:0.9501754 100:0.55660075 101:0.5238361 102:0.9753667 103:0.5054209 104:0.47018495 105:0.97520727 106:0.3703763 107:0.3334662 
-0.7945733456026106 0:0.99609375 1:0.69889987 2:0.7737564 3:0.99609375 4:0.7016901 5:0.7754305 6:0.99609375 7:0.7008131 8:0.7742347 9:0.9896365 10:0.6332111 11:0.7196269 12:0.9768814 13:0.59709823 14:0.68885523 15:0.9918686 16:0.93646365 17:0.9502551 18:0.9921078 19:0.61559314 20:0.70958227 21:0.99609375 22:0.69953763 23:0.77279973 24:0.99609375 25:0.701132 26:0.7742347 27:0.99609375 28:0.70097256 29:0.77319837 30:0.98860013 31:0.5974171 32:0.69690686 33:0.97297513 34:0.64333546 35:0.7264828 36:0.98620856 37:0.53348213 38:0.6483578 39:0.99609375 40:0.6996173 41:0.77272004 42:0.99609375 43:0.70041454 44:0.77407527 45:0.99609375 46:0.6993782 47:0.7733578 48:0.99609375 49:0.6875797 50:0.765625 51:0.9586256 52:0.4979273 53:0.6179847 54:0.9945791 55:0.6714764 56:0.751993 57:0.99609375 58:0.7014509 59:0.7734375 60:0.99609375 61:0.7013712 62:0.7745536 63:0.99609375 64:0.6969866 65:0.7716837 66:0.9831792 67:0.57007337 68:0.6721939 69:0.9790338 70:0.7106186 71:0.77822065 72:0.99609375 73:0.69547194 74:0.76945156 75:0.99609375 76:0.69977677 77:0.7739158 78:0.9958546 79:0.6918048 80:0.7667411 81:0.9831792 82:0.57621175 83:0.67657846 84:0.9753667 85:0.6714764 86:0.74529654 87:0.9933036 88:0.9678731 89:0.97441006 90:0.9736129 91:0.5327647 92:0.6464445 93:0.98078763 94:0.5818718 95:0.6903699 96:0.9768814 97:0.5315689 98:0.6414222 99:0.9797513 100:0.70758927 101:0.7737564 102:0.99282527 103:0.9617347 104:0.9691486 105:0.99609375 106:0.92984694 107:0.9600606 
-0.5348777795235968 0:0.99609375 1:0.9468272 2:0.13400829 3:0.97552615 4:0.86902106 5:0.27351722 6:0.96029973 7:0.81529015 8:0.606824 9:0.9720185 10:0.86360013 11:0.12412309 12:0.99609375 13:0.9386161 14:0.13767539 15:0.99601406 16:0.8987564 17:0.13408801 18:0.9528061 19:0.8313935 20:0.30604273 21:0.9441964 22:0.77040815 23:0.27869898 24:0.93773913 25:0.73373723 26:0.41645408 27:0.9457111 28:0.8023756 29:0.22759885 30:0.9566327 31:0.83211094 32:0.35419324 33:0.9526467 34:0.79304844 35:0.28611287 36:0.9436384 37:0.75964606 38:0.58203125 39:0.9213967 40:0.72640306 41:0.44419643 42:0.9292092 43:0.7299904 44:0.45264667 45:0.9195631 46:0.7375638 47:0.36814412 48:0.93478954 49:0.8046078 50:0.58027744 51:0.9276945 52:0.76546556 53:0.49609375 54:0.96572065 55:0.810507 56:0.103954084 57:0.9404496 58:0.7648278 59:0.17769451 60:0.934949 61:0.74314415 62:0.47472894 63:0.9692283 64:0.84478635 65:0.14261799 66:0.9705038 67:0.89285713 68:0.129544 69:0.9751276 70:0.8124203 71:0.12962373 72:0.99609375 73:0.92259246 74:0.13337053 75:0.95870537 76:0.7739955 77:0.20854592 78:0.940051 79:0.7260842 80:0.5571588 81:0.9701849 82:0.7517538 83:0.123007014 84:0.9956154 85:0.9123884 86:0.13408801 87:0.9764828 88:0.79759246 89:0.12404337 90:0.9563138 91:0.79671556 92:0.11710778 93:0.9409279 94:0.70336413 95:0.1611926 96:0.9296875 97:0.69515306 98:0.42330995 99:0.9751276 100:0.77040815 101:0.11511479 102:0.99433994 103:0.7473693 104:0.12627551 105:0.9457908 106:0.5922353 107:0.06624681 
-0.3802203303819681 0:0.99609375 1:0.94913906 2:0.13408801 3:0.97321427 4:0.86407846 5:0.29201213 6:0.9634885 7:0.82884246 8:0.6148756 9:0.97584504 10:0.87428254 11:0.12452168 12:0.99609375 13:0.93654335 14:0.13807398 15:0.9959343 16:0.8967634 17:0.13392857 18:0.95176977 19:0.8316327 20:0.30747768 21:0.9407685 22:0.7641901 23:0.28292412 24:0.9374203 25:0.73620856 26:0.4172513 27:0.9465083 28:0.8066805 29:0.23206314 30:0.9565529 31:0.8329879 32:0.3552296 33:0.95216835 34:0.7913744 35:0.28069195 36:0.9437978 37:0.7603635 38:0.58434314 39:0.9210778 40:0.71946746 41:0.43566644 42:0.9308833 43:0.72640306 44:0.44539222 45:0.9204401 46:0.7407526 47:0.3729273 48:0.9370217 49:0.8081952 50:0.5842634 51:0.9280134 52:0.76434946 53:0.49123088 54:0.9654815 55:0.810507 56:0.10371492 57:0.9410077 58:0.7657047 59:0.19459502 60:0.93821746 61:0.75223213 62:0.47767857 63:0.97002554 64:0.8490115 65:0.13504465 66:0.9708227 67:0.8910236 68:0.13018176 69:0.97560585 70:0.80978954 71:0.13066007 72:0.99609375 73:0.9251435 74:0.13233419 75:0.95934314 76:0.7808514 77:0.23732461 78:0.9453922 79:0.7427455 80:0.5708705 81:0.9724968 82:0.7578922 83:0.11559311 84:0.9956154 85:0.91135204 86:0.13480549 87:0.97345346 88:0.79121494 89:0.12324617 90:0.9572704 91:0.79504144 92:0.11591199 93:0.9433195 94:0.7098214 95:0.18375319 96:0.93064415 97:0.7022481 98:0.4222736 99:0.9795121 100:0.78148913 101:0.11710778 102:0.99433994 103:0.74402106 104:0.12515944 105:0.94371814 106:0.5884885 107:0.0628986 
-0.46024320733811563 0:0.99609375 1:0.6987404 2:0.7730389 3:0.99609375 4:0.7022481 5:0.77558994 6:0.99609375 7:0.7001754 8:0.7735172 9:0.988919 10:0.6209343 11:0.70870537 12:0.9750478 13:0.6177455 14:0.7055166 15:0.9926658 16:0.953125 17:0.9626116 18:0.9925064 19:0.62683356 20:0.7176339 21:0.99609375 22:0.6993782 23:0.77216196 24:0.99609375 25:0.7016103 26:0.7738361 27:0.99609375 28:0.70009565 29:0.77272004 30:0.98748404 31:0.5876913 32:0.6901307 33:0.97640306 34:0.6726722 35:0.7479273 36:0.9867666 37:0.5320472 38:0.6458865 39:0.99609375 40:0.69889987 41:0.7720026 42:0.99609375 43:0.70041454 44:0.7742347 45:0.99609375 46:0.6994579 47:0.7734375 48:0.99609375 49:0.6874203 50:0.76538587 51:0.957669 52:0.4987245 53:0.6147162 54:0.9941805 55:0.6649394 56:0.7471301 57:0.99609375 58:0.7014509 59:0.77319837 60:0.99609375 61:0.7007334 62:0.7734375 63:0.99609375 64:0.6973055 65:0.7708068 66:0.98254144 67:0.57453763 68:0.6755421 69:0.97759885 70:0.6973852 71:0.7680166 72:0.99609375 73:0.6961894 74:0.7696907 75:0.99609375 76:0.6999362 77:0.7729592 78:0.9958546 79:0.6928412 80:0.76833546 81:0.98365754 82:0.5805166 83:0.68064415 84:0.9751276 85:0.65489477 86:0.7327009 87:0.9925064 88:0.9609375 89:0.96859056 90:0.9777583 91:0.55859375 92:0.66717154 93:0.98461413 94:0.6110491 95:0.7121333 96:0.9791932 97:0.5393814 98:0.6484375 99:0.9785555 100:0.6851084 101:0.7552615 102:0.99202806 103:0.95176977 104:0.9610172 105:0.99609375 106:0.9367028 107:0.9638871 
-0.5718803076613299 0:0.40672833 1:0.73333865 2:0.99609375 3:0.48764348 4:0.9528061 5:0.99609375 6:0.4634088 7:0.89740115 8:0.99609375 9:0.6878986 10:0.8376116 11:0.99609375 12:0.8533163 13:0.8989158 14:0.99609375 15:0.52558994 16:0.766183 17:0.99609375 18:0.5431282 19:0.75621814 20:0.99521685 21:0.47393176 22:0.9099968 23:0.99609375 24:0.46635842 25:0.9300861 26:0.99609375 27:0.59765625 28:0.8191167 29:0.99609375 30:0.8985172 31:0.9300064 32:0.99609375 33:0.76203763 34:0.8355389 35:0.99609375 36:0.7387596 37:0.8348214 38:0.9945791 39:0.68566644 40:0.85180163 41:0.99609375 42:0.5060587 43:0.86065054 44:0.99609375 45:0.4474649 46:0.88177615 47:0.99609375 48:0.52439415 49:0.83753186 50:0.99609375 51:0.65114796 52:0.794324 53:0.99609375 54:0.6307398 55:0.8257334 56:0.99609375 57:0.9633291 58:0.97385204 59:0.99609375 60:0.7410714 61:0.8463807 62:0.99609375 63:0.4486607 64:0.8634407 65:0.99609375 66:0.5028699 67:0.9407685 68:0.99609375 69:0.39405292 70:0.72058356 71:0.99609375 72:0.47257653 73:0.845743 74:0.99609375 75:0.63751596 76:0.8183195 77:0.99609375 78:0.60052615 79:0.8166454 80:0.99609375 81:0.4732143 82:0.90178573 83:0.99609375 84:0.4979273 85:0.93470985 86:0.99609375 87:0.35945472 88:0.7387596 89:0.99609375 90:0.4568718 91:0.80189735 92:0.99609375 93:0.412787 94:0.77614796 95:0.99609375 96:0.5054209 97:0.8804209 98:0.99609375 99:0.5389828 100:0.93526787 101:0.99609375 102:0.48325893 103:0.91629463 104:0.99609375 105:0.41892537 106:0.85347575 107:0.99609375 
-0.635821037858977 0:0.14979273 1:0.9662787 2:0.27272004 3:0.019850127 4:0.9740912 5:0.13233419 6:0.30524555 7:0.9598214 8:0.21085778 9:0.36455676 10:0.96372765 11:0.21683674 12:0.11120854 13:0.95408165 14:0.02471301 15:0.107461736 16:0.88185585 18:0.6507494 19:0.91796875 20:0.59853315 21:0.14205995 22:0.9773597 23:0.22249681 24:0.13711734 25:0.9646843 26:0.13010204 27:0.14931442 28:0.9809471 29:0.101801656 30:0.12779018 31:0.97257656 32:0.052774236 33:0.1118463 34:0.92291135 35:0.008529974 36:0.6308195 37:0.9181282 38:0.56321746 39:0.3100287 40:0.95790815 41:0.28882334 42:0.041772958 43:0.99282527 44:0.11511479 45:0.176419 46:0.9666773 47:0.11104911 48:0.4865274 49:0.9415657 50:0.3265306 51:0.2984694 52:0.9288106 53:0.15768495 54:0.07254464 55:0.9183673 56:0.25103635 57:0.084422834 58:0.9603795 59:0.19467475 60:0.048788264 61:0.98341835 62:0.12675382 63:0.14612564 64:0.981824 65:0.124362245 66:0.63998723 67:0.9204401 68:0.5367506 69:0.73860013 70:0.901706 71:0.6441327 73:0.86615115 74:0.21635842 75:0.051578443 76:0.9591837 77:0.21324936 78:0.25 79:0.94260204 80:0.19555166 81:0.08458227 82:0.98078763 83:0.10371492 84:0.2702487 85:0.9722577 86:0.19523278 87:0.63058037 88:0.9337532 89:0.50653696 91:0.8677455 92:0.19308035 93:0.14604592 94:0.92697704 95:0.20344388 96:0.259088 97:0.96492344 98:0.22704081 99:0.029815052 100:0.9589445 101:0.09151786 102:0.04312819 103:0.95184946 104:0.04424426 105:0.1640625 106:0.9829401 107:0.09510523 
-0.6758045254047227 0:0.110012755 1:0.9663584 2:0.245456 3:0.017777424 4:0.9724968 5:0.12507972 6:0.32828444 7:0.96197385 8:0.22480868 9:0.35307717 10:0.9620536 11:0.20248725 12:0.1122449 13:0.9510523 14:0.023038903 15:0.1089764 16:0.876993 18:0.58498085 19:0.9235491 20:0.54998404 21:0.11080995 22:0.97967154 23:0.2023278 24:0.1554528 25:0.9633291 26:0.13472576 27:0.1484375 28:0.9829401 29:0.10204082 30:0.1200574 31:0.9695472 32:0.047512755 33:0.110012755 34:0.917331 35:0.0056600766 36:0.66222894 37:0.9151786 38:0.57788587 39:0.28308356 40:0.9652423 41:0.2779018 42:0.043606505 43:0.9945791 44:0.113042094 45:0.19300064 46:0.9626913 47:0.11973852 48:0.4634088 49:0.948581 50:0.3080357 51:0.25294963 52:0.92984694 53:0.11806441 54:0.10052615 55:0.92458546 56:0.26004463 57:0.09430803 58:0.96364796 59:0.2014509 60:0.04703444 61:0.98533165 62:0.12101403 63:0.17673789 64:0.9791135 65:0.13384885 66:0.68470985 67:0.91509885 68:0.5793208 69:0.68877554 70:0.90497446 71:0.58171237 73:0.8754783 74:0.21747449 75:0.058912627 76:0.9632494 77:0.21109694 78:0.22927296 79:0.9426818 80:0.17912947 81:0.085698344 82:0.98541135 83:0.10459184 84:0.319037 85:0.9666773 86:0.23373725 87:0.67115754 88:0.9292889 89:0.5427296 90:9.5663266E-4 91:0.8735651 92:0.19411671 93:0.16725127 94:0.92841196 95:0.20822704 96:0.26084185 97:0.96476406 98:0.22759885 99:0.027582908 100:0.95958227 101:0.08649553 102:0.05596301 103:0.96029973 104:0.048947703 105:0.19937819 106:0.9819037 107:0.1143176 
-0.528110212556825 0:0.99609375 1:0.52941644 2:0.19993623 3:0.97154015 4:0.48549107 5:0.20735013 6:0.9280134 7:0.40298152 8:0.24824618 9:0.9488202 10:0.52471304 11:0.43239796 12:0.9736926 13:0.627551 14:0.5813138 15:0.97680163 16:0.5082908 17:0.477838 18:0.99609375 19:0.61096936 20:0.25860968 21:0.9916295 22:0.5859375 23:0.26913264 24:0.9745695 25:0.5278221 26:0.3055644 27:0.97265625 28:0.6287468 29:0.5271046 30:0.9748884 31:0.61782527 32:0.5546875 33:0.95966196 34:0.44044963 35:0.39979273 36:0.97321427 37:0.6159917 38:0.3725287 39:0.9776786 40:0.6846301 41:0.5024713 42:0.98660713 43:0.84773594 44:0.7934471 45:0.99601406 46:0.9740115 47:0.9721779 48:0.995456 49:0.97632337 50:0.9756856 51:0.9840561 52:0.6947545 53:0.6788106 54:0.9672353 55:0.76163906 56:0.7264828 57:0.98038906 58:0.8483737 59:0.8246971 60:0.98573023 61:0.794882 62:0.7339764 63:0.98038906 64:0.7026467 65:0.61654973 66:0.9782366 67:0.6501913 68:0.5955038 69:0.96890944 70:0.58490115 71:0.5691167 72:0.9609375 73:0.46085778 74:0.2611607 75:0.95129144 76:0.50709504 77:0.3549107 78:0.97321427 79:0.5589923 80:0.38807398 81:0.9817443 82:0.59502554 83:0.4728954 84:0.9691486 85:0.59877235 86:0.55110013 87:0.942044 88:0.32756695 89:0.30524555 90:0.99609375 91:0.3860013 92:0.19714604 93:0.9742506 94:0.46898916 95:0.30117986 96:0.9398119 97:0.47472894 98:0.4016263 99:0.95121175 100:0.5613042 101:0.5289381 102:0.97496814 103:0.5225606 104:0.48604912 105:0.9751276 106:0.3741231 107:0.3391263 
-0.14535867653542145 0:0.99609375 1:0.5320472 2:0.20216836 3:0.97177935 4:0.48453444 5:0.20758928 6:0.9280134 7:0.39907527 8:0.24728954 9:0.9477838 10:0.5257494 11:0.4359056 12:0.973294 13:0.6322545 14:0.5845026 15:0.9768814 16:0.5043846 17:0.4753667 18:0.99609375 19:0.611926 20:0.2598852 21:0.99115115 22:0.58569837 23:0.2696907 24:0.97528696 25:0.5311703 26:0.31361607 27:0.973294 28:0.6354432 29:0.53571427 30:0.97321427 31:0.6209343 32:0.5587532 33:0.9591837 34:0.4378986 35:0.3988361 36:0.9722577 37:0.6189413 38:0.37850764 39:0.9780772 40:0.68965244 41:0.5141103 42:0.98660713 43:0.85427296 44:0.80540496 45:0.99601406 46:0.9762436 47:0.97353315 48:0.995456 49:0.9766422 50:0.9771205 51:0.9839764 52:0.6930006 53:0.67777425 54:0.96651787 55:0.7668208 56:0.73126596 57:0.97927296 58:0.8474968 59:0.82214606 60:0.98541135 61:0.7890625 62:0.7242506 63:0.97991073 64:0.69802296 65:0.60921556 66:0.9777583 67:0.63966835 68:0.5848214 69:0.96691644 70:0.5711894 71:0.55564415 72:0.9594228 73:0.45854592 74:0.25757334 75:0.9507334 76:0.50653696 77:0.35172194 78:0.97209823 79:0.5570791 80:0.3872768 81:0.981824 82:0.59598213 83:0.4769611 84:0.9682717 85:0.5970185 86:0.54958546 87:0.93909436 88:0.32342157 89:0.30078125 90:0.99609375 91:0.38671875 92:0.1973852 93:0.97385204 94:0.47018495 95:0.3018176 96:0.9411671 97:0.47855547 98:0.40609056 99:0.95153064 100:0.5639349 101:0.5333227 102:0.9750478 103:0.51466835 104:0.47704083 105:0.97496814 106:0.36997768 107:0.3334662 
-0.5329223251185814 0:0.9203603 1:0.4950574 2:0.9851722 3:0.92610013 4:0.6591996 5:0.983817 6:0.9302455 7:0.6927615 8:0.9827009 9:0.91852677 10:0.5326849 11:0.9769611 12:0.9477041 13:0.30986926 14:0.9785555 15:0.988919 16:0.2281569 17:0.98541135 18:0.95735013 19:0.82015306 20:0.99346304 21:0.9945791 22:0.9925861 23:0.99609375 24:0.9945791 25:0.9939413 26:0.99609375 27:0.9898756 28:0.96875 29:0.99601406 30:0.92211413 31:0.5562022 32:0.98038906 33:0.9588648 34:0.22313456 35:0.98038906 36:0.9672353 37:0.8556282 38:0.99609375 39:0.93279654 40:0.67410713 41:0.99609375 42:0.9338329 43:0.65529335 44:0.99609375 45:0.95591515 46:0.7885045 47:0.99410075 48:0.93622446 49:0.7417092 50:0.9803093 51:0.91589606 52:0.22297513 53:0.96229273 54:0.9213967 55:0.5365115 56:0.99609375 57:0.9686703 58:0.5648119 59:0.99609375 60:0.9844547 61:0.5677615 62:0.99609375 63:0.9209981 64:0.42219388 65:0.9872449 66:0.89947385 67:0.54663587 68:0.9811862 69:0.93271685 70:0.18183993 71:0.9740912 72:0.8680644 73:0.3042889 74:0.93526787 75:0.9950574 76:0.44148597 77:0.99083227 78:0.99609375 79:0.41167092 80:0.9901148 81:0.9119898 82:0.274713 83:0.9530453 84:0.85371494 85:0.20448023 86:0.94395727 87:0.96603954 88:0.17291135 89:0.9873246 90:0.9363839 91:0.23397641 92:0.9477838 93:0.9945791 94:0.29336736 95:0.98214287 96:0.99609375 97:0.2972736 98:0.98102677 99:0.92745537 100:0.22281569 101:0.9348693 102:0.92873085 103:0.18008609 104:0.9494579 105:0.9704241 106:0.17458546 107:0.99059314 
