svm_type c_svc
kernel_type linear
nr_class 2
total_sv 10
rho -3.1072946451283654
label 0 1
nr_sv 6 4
SV
0.39189084493304543 0:0.6784917 1:0.18486926 2:0.7456952 3:0.58235013 4:0.040656887 5:0.58195156 6:0.7417092 7:0.17952806 8:0.82629144 9:0.6368782 10:0.0019929847 11:0.6194994 12:0.6626276 13:0.055484693 14:0.6585619 15:0.62436223 16:7.174745E-4 17:0.6000478 18:0.58864796 19:0.14732143 20:0.64740115 21:0.84757656 22:0.19132653 23:0.97672194 24:0.50215244 25:0.08075574 26:0.5379464 
0.6990973999610456 0:0.93160075 1:0.7444994 3:0.59933037 4:0.3968431 6:0.9317602 7:0.73915815 9:0.60722256 10:0.39237884 12:0.54910713 13:0.3581792 15:0.61535394 16:0.4231505 18:0.9300064 19:0.7491231 21:0.55397004 22:0.3478157 24:0.9359853 25:0.7511958 
0.6156583765791157 0:0.17697704 1:0.5141103 2:0.64421237 3:0.20248725 4:0.58529973 5:0.74290496 6:0.15688775 7:0.41485968 8:0.5171397 9:0.13129783 10:0.3458227 11:0.44363838 12:0.21293049 13:0.60722256 14:0.75717473 15:0.2265625 16:0.6001276 17:0.7653061 18:0.24689095 19:0.6587213 20:0.8559471 21:0.1924426 22:0.5043048 23:0.6441327 24:0.27072704 25:0.75382656 26:0.9847736 
3.697052639477208 0:0.8136958 1:0.8917411 2:0.82095027 3:0.7769452 4:0.875 5:0.7549426 6:0.5698342 7:0.83689415 8:0.5431282 9:0.8889509 10:0.8938138 11:0.88926977 12:0.9406888 13:0.96022004 14:0.94132656 15:0.56672513 16:0.78284436 17:0.5003986 18:0.5633769 19:0.81409436 20:0.62053573 21:0.44523278 22:0.7346939 23:0.41645408 24:0.6599171 25:0.8324298 26:0.64915496 
0.8025283226372036 0:0.86328125 1:0.8017379 2:0.8725287 3:0.8006218 4:0.7289541 5:0.80484694 6:0.7737564 7:0.5961416 8:0.79966515 9:0.8761958 10:0.8405612 11:0.87595665 12:0.95583546 13:0.9449936 14:0.95711094 15:0.6250797 16:0.3605708 17:0.6157526 18:0.76626277 19:0.6301818 20:0.7896205 21:0.6898119 22:0.40967792 23:0.7476084 24:0.73341835 25:0.6460459 26:0.7433036 
0.12205281823640717 0:0.8498884 1:0.15696748 2:0.50805163 3:0.87308675 4:0.13297194 5:0.5129943 6:0.7972736 7:0.31760204 8:0.5660077 9:0.7878667 10:0.14979273 11:0.4696269 12:0.87635523 13:0.15513393 14:0.526706 15:0.8461416 16:0.13145727 17:0.49194834 18:0.84685904 19:0.14867666 20:0.4991231 21:0.85347575 22:0.14660396 23:0.5062978 24:0.8529974 25:0.3650351 26:0.6475606 
-2.6883716502162756 0:0.99609375 1:0.69889987 2:0.7737564 3:0.99609375 4:0.7008131 5:0.7742347 6:0.9768814 7:0.59709823 8:0.68885523 9:0.98620856 10:0.53348213 11:0.6483578 12:0.99609375 13:0.70041454 14:0.77407527 15:0.99609375 16:0.6875797 17:0.765625 18:0.99609375 19:0.69547194 20:0.76945156 21:0.9958546 22:0.6918048 23:0.7667411 24:0.9753667 25:0.6714764 26:0.74529654 
-2.159355154391238 0:0.11583227 1:0.9664381 2:0.2528699 3:0.31600764 4:0.96197385 5:0.22002551 6:0.11336097 7:0.95288587 8:0.025430486 9:0.6614318 10:0.9158163 11:0.58115435 12:0.044961736 13:0.9939413 14:0.11535396 15:0.46165496 16:0.94666773 17:0.30492666 19:0.8714923 20:0.21859056 21:0.23038903 22:0.9444356 23:0.18391263 24:0.30652106 25:0.9682717 26:0.22425064 
-0.44454031118951554 0:0.40672833 1:0.73333865 2:0.99609375 3:0.4634088 4:0.89740115 5:0.99609375 6:0.8533163 7:0.8989158 8:0.99609375 9:0.7387596 10:0.8348214 11:0.9945791 12:0.5060587 13:0.86065054 14:0.99609375 15:0.52439415 16:0.83753186 17:0.99609375 18:0.47257653 19:0.845743 20:0.99609375 21:0.60052615 22:0.8166454 23:0.99609375 24:0.4979273 25:0.93470985 26:0.99609375 
-1.0360132860269968 0:0.9221939 1:0.49067283 2:0.984375 3:0.9281728 4:0.6770568 5:0.9815051 6:0.9499362 7:0.30612245 8:0.97815686 9:0.969308 10:0.86336094 11:0.99601406 12:0.93279654 13:0.6557717 14:0.99609375 15:0.9350287 16:0.74083227 17:0.9799904 18:0.8683833 19:0.31026787 20:0.9367028 21:0.99609375 22:0.415338 23:0.99035394 24:0.8539541 25:0.21101722 26:0.9456314 
