svm_type c_svc
kernel_type rbf
gamma 0.5
nr_class 7
total_sv 49
rho 0.0057969942934342055 0.11986717784072229 0.0014941665770467263 0.20611767697084546 0.18441187333968057 -0.33836520832505973 0.10328366794847313 0.06434186113622341 0.23950659654353762 0.18392078840634038 -0.2871884507538354 -0.0903894914156917 0.13391017521122253 0.04030241740528393 -0.3860592901201766 0.15551266350442722 0.12592194149720243 -0.35266355182619274 -0.023876871602989732 -0.4505113278842791 -0.43423531211874333
label 2 5 3 4 0 1 6
nr_sv 8 4 5 9 13 8 2
SV
0.0 0.0 0.30526770894659716 0.0 0.0 0.0 0:0.40274236 1:0.734933 2:0.99609375 3:0.46619898 4:0.89628506 5:0.99609375 6:0.8107462 7:0.8764349 8:0.99609375 9:0.7398756 10:0.83322704 11:0.9947385 12:0.49147004 13:0.8714923 14:0.99609375 15:0.5483897 16:0.8359375 17:0.99609375 18:0.47959185 19:0.8376913 20:0.99609375 21:0.61296237 22:0.8157685 23:0.99609375 24:0.49816644 25:0.93447065 26:0.99609375 
0.0 0.0 0.0 0.0 0.12926804753167823 0.33435876735548165 0:0.40672833 1:0.73333865 2:0.99609375 3:0.4634088 4:0.89740115 5:0.99609375 6:0.8533163 7:0.8989158 8:0.99609375 9:0.7387596 10:0.8348214 11:0.9945791 12:0.5060587 13:0.86065054 14:0.99609375 15:0.52439415 16:0.83753186 17:0.99609375 18:0.47257653 19:0.845743 20:0.99609375 21:0.60052615 22:0.8166454 23:0.99609375 24:0.4979273 25:0.93470985 26:0.99609375 
5.65328440416431 4.174023119238795 6.33380406410209 4.185748999192893 0.0 0.016475573879979517 0:0.79990435 1:0.82254463 2:0.8313935 3:0.71229273 4:0.78316325 5:0.81409436 6:0.6019611 7:0.6825574 8:0.71428573 9:0.82796556 10:0.84279335 11:0.8486926 12:0.953125 13:0.9572704 14:0.95998085 15:0.4312819 16:0.580118 17:0.6489955 18:0.6554528 19:0.7574139 20:0.80739796 21:0.4334343 22:0.56816006 23:0.6286671 24:0.70001596 25:0.7956792 26:0.839206 
0.0 0.0 0.0 0.0 6.250309088126459 0.0 0:0.7847577 1:0.80947065 2:0.81839925 3:0.7524713 4:0.80691963 5:0.8313138 6:0.6015625 7:0.6843112 8:0.7153221 9:0.84359056 10:0.8561065 11:0.8604911 12:0.9441167 13:0.95001596 14:0.9526467 15:0.46197385 16:0.60658485 17:0.6761798 18:0.6360013 19:0.7492028 20:0.80133927 21:0.42482463 22:0.5671237 23:0.6310587 24:0.6780134 25:0.78435904 26:0.832669 
0.0 0.0 0.0 0.0 0.5357026066306213 0.3387182843010522 0:0.80086094 1:0.8227838 2:0.832669 3:0.7401148 4:0.80022323 5:0.8248565 6:0.5888871 7:0.672433 8:0.7055963 9:0.8480548 10:0.8594547 11:0.86383927 12:0.9449139 13:0.95097256 14:0.9539222 15:0.44794324 16:0.5933514 17:0.66310585 18:0.6307398 19:0.74529654 20:0.79878825 21:0.41804847 22:0.56353635 23:0.6308195 24:0.686942 25:0.7887436 26:0.8367347 
0.0 0.0 0.14871743187301664 0.0 0.0 0.0 0:0.18016581 1:0.52646685 2:0.65848213 3:0.19842155 4:0.57413906 5:0.7271205 6:0.15680803 7:0.41326532 8:0.515067 9:0.13026148 10:0.34574297 11:0.4441167 12:0.21388711 13:0.61854273 14:0.7704879 15:0.2240912 16:0.5888871 17:0.75127554 18:0.24242666 19:0.64947385 20:0.84239477 21:0.19339924 22:0.5078922 23:0.6489955 24:0.2705676 25:0.7508769 26:0.9814254 
0.0 0.0 0.39737750044652215 0.0 0.8842308917909264 0.8104695753691482 0:0.18431123 1:0.53722894 2:0.6739477 3:0.19722576 4:0.5683195 5:0.72265625 6:0.15569197 7:0.4107143 8:0.51092154 9:0.1312181 10:0.34558356 11:0.444037 12:0.22066326 13:0.63966835 14:0.7951212 15:0.2166773 16:0.56648594 17:0.72385204 18:0.23573023 19:0.6327328 20:0.8188776 21:0.18901467 22:0.49489796 23:0.6302615 24:0.2688138 25:0.74521685 26:0.9760045 
0.5132431182273504 0.6936439148486873 0.0 0.8365860261001791 0.06600707861775831 0.0 0:0.17753507 1:0.5179369 2:0.64748085 3:0.2015306 4:0.5867347 5:0.7450574 6:0.1546556 7:0.41015625 8:0.50852996 9:0.13050064 10:0.34263393 11:0.43973213 12:0.21827169 13:0.63058037 14:0.7861129 15:0.21898916 16:0.5777264 17:0.7375638 18:0.23963648 19:0.64373404 20:0.83282846 21:0.1846301 22:0.48485333 23:0.6172672 24:0.2709662 25:0.75334823 26:0.984375 
-0.0 0.0 0.6340890649118458 0.0 0.2601352345518394 0.29880410527974427 0:0.99609375 1:0.69802296 2:0.77359694 3:0.99609375 4:0.7007334 5:0.77439415 6:0.97640306 7:0.59438777 8:0.6863839 9:0.98453444 10:0.5294962 11:0.64245856 12:0.99609375 13:0.70041454 14:0.77407527 15:0.99609375 16:0.68885523 17:0.76634246 18:0.99609375 19:0.69467473 20:0.7702487 21:0.99609375 22:0.69260204 23:0.7668208 24:0.97520727 25:0.6666135 26:0.74115115 
-5.637461313392148 7.047088164114901 15.0 12.093029114042135 3.031327706451648 0.40036240368207576 0:0.8761161 1:0.79902744 2:0.83657527 3:0.84941006 4:0.6996173 5:0.7766263 6:0.80341196 7:0.66621494 8:0.7397162 9:0.87117344 10:0.8276467 11:0.84885204 12:0.9638871 13:0.95176977 14:0.9588648 15:0.7280772 16:0.39851722 17:0.5632972 18:0.8110651 19:0.6351244 20:0.7221779 21:0.69467473 22:0.41645408 23:0.5575574 24:0.8258131 25:0.73907846 26:0.79304844 
-0.5290662089995128 0.0 0.0 0.0 0.0 0.0 0:0.8490115 1:0.15601084 2:0.50510204 3:0.875558 4:0.13520408 5:0.51371175 6:0.7916135 7:0.29424426 8:0.5498246 9:0.7899394 10:0.15106824 11:0.47233737 12:0.8770727 13:0.15505421 14:0.5271843 15:0.84271365 16:0.13002232 17:0.48963648 18:0.84478635 19:0.1484375 20:0.4988042 21:0.8486926 22:0.145169 23:0.502551 24:0.86742663 25:0.39365435 26:0.67163587 
-0.0 0.81300166553821 1.8434941127925146 1.9701636835438747 0.7619625898277033 0.6319702232171425 0:0.8498884 1:0.15696748 2:0.50805163 3:0.87308675 4:0.13297194 5:0.5129943 6:0.7972736 7:0.31760204 8:0.5660077 9:0.7878667 10:0.14979273 11:0.4696269 12:0.87635523 13:0.15513393 14:0.526706 15:0.8461416 16:0.13145727 17:0.49194834 18:0.84685904 19:0.14867666 20:0.4991231 21:0.85347575 22:0.14660396 23:0.5062978 24:0.8529974 25:0.3650351 26:0.6475606 
-0.104636913527401 -0.14341607773810583 0.22550925098196692 0.10561963189492413 0.5581169717201889 0.34569603554391126 0:0.99609375 1:0.94913906 2:0.13408801 3:0.9634885 4:0.82884246 5:0.6148756 6:0.99609375 7:0.93654335 8:0.13807398 9:0.9437978 10:0.7603635 11:0.58434314 12:0.9308833 13:0.72640306 14:0.44539222 15:0.9370217 16:0.8081952 17:0.5842634 18:0.99609375 19:0.9251435 20:0.13233419 21:0.9453922 22:0.7427455 23:0.5708705 24:0.9956154 25:0.91135204 26:0.13480549 
-0.0 -0.0 0.0 1.5208865259895274 0.0 0.0 0:0.93040496 1:0.7417092 3:0.5824298 4:0.38337055 6:0.9325574 7:0.738919 9:0.57884246 10:0.36607143 12:0.5503029 13:0.3602519 15:0.5842634 16:0.3927774 18:0.9316805 19:0.75215244 21:0.5341996 22:0.3309949 24:0.93566644 25:0.7503189 
-0.0 -0.0 0.0 5.184232532192047 0.0 0.4723938962111136 0:0.895169 1:0.87779015 2:0.801419 3:0.81313777 4:0.7763871 5:0.70408165 6:0.82916135 7:0.7645089 8:0.5180166 9:0.87659436 10:0.86647004 11:0.84654015 12:0.9568718 13:0.95184946 14:0.94084823 15:0.60546875 16:0.515625 17:0.33904657 18:0.8199936 19:0.7713648 20:0.55596304 21:0.57254463 22:0.48174426 23:0.3223852 24:0.82676977 25:0.7887436 26:0.63257337 
-4.081794683874041 -7.002759823303756 3.9251773916258017 11.708986605633646 5.450847753774337 0.0 0:0.8915019 1:0.87101406 2:0.7898597 3:0.8121811 4:0.77766263 5:0.7075096 6:0.8342634 7:0.77152425 8:0.5370695 9:0.8706952 10:0.86065054 11:0.8408004 12:0.95790815 13:0.95208865 14:0.94172513 15:0.61439735 16:0.52319837 17:0.35100445 18:0.82166773 19:0.7734375 20:0.565051 21:0.56752235 22:0.4819037 23:0.33115435 24:0.82501596 25:0.78834504 26:0.6284279 
-0.6812354366860394 -0.7139139286112492 0.7116416165316103 0.0 0.9052803342747812 0.6306683970187432 0:0.9300861 1:0.7418686 3:0.5760523 4:0.3765944 6:0.9325574 7:0.74003506 9:0.57716835 10:0.36567283 12:0.5485491 13:0.35929528 15:0.58282846 16:0.3915019 18:0.9316805 19:0.75334823 21:0.52160394 22:0.32206634 24:0.93534756 25:0.7503189 
-0.6864000111570617 -0.5811147989877733 -0.0 1.1230608938980158 0.0 0.5156480377895053 0:0.6570472 1:0.17227359 2:0.72002554 3:0.57102996 4:0.022002552 5:0.5632972 6:0.72385204 7:0.17147641 8:0.80540496 9:0.6353635 10:0.001833546 11:0.61647004 12:0.67952806 13:0.08163265 14:0.6848693 15:0.62228954 16:7.971939E-4 17:0.59797513 18:0.5942283 19:0.15369898 20:0.6570472 21:0.84446746 22:0.18805803 23:0.9766422 24:0.50757337 25:0.09016263 26:0.5469547 
-0.0 -0.14882452609844135 -0.0 0.0 0.0 0.0 0:0.92522323 1:0.48373723 2:0.9851722 3:0.92697704 4:0.67251277 5:0.9827009 6:0.9478635 7:0.3133769 8:0.9789541 9:0.9682717 10:0.87021685 11:0.99601406 12:0.9325574 13:0.66007656 14:0.99609375 15:0.9476244 16:0.7797353 17:0.9852519 18:0.8687022 19:0.30819514 20:0.9395727 21:0.99609375 22:0.42123723 23:0.99083227 24:0.84845346 25:0.21468431 26:0.9461097 
-0.0 -0.0 -0.05630674440455288 0.0 0.08689521698968578 0.0 0:0.6784917 1:0.18486926 2:0.7456952 3:0.58235013 4:0.040656887 5:0.58195156 6:0.7417092 7:0.17952806 8:0.82629144 9:0.6368782 10:0.0019929847 11:0.6194994 12:0.6626276 13:0.055484693 14:0.6585619 15:0.62436223 16:7.174745E-4 17:0.6000478 18:0.58864796 19:0.14732143 20:0.64740115 21:0.84757656 22:0.19132653 23:0.97672194 24:0.50215244 25:0.08075574 26:0.5379464 
-0.0 -0.0 -0.0 0.0 0.22639801970243506 0.36494866040416496 0:0.92378825 1:0.48907843 2:0.98533165 3:0.92897004 4:0.6875 5:0.9828603 6:0.94515306 7:0.3171237 8:0.97991073 9:0.9676339 10:0.8614477 11:0.99601406 12:0.9339923 13:0.6561703 14:0.99609375 15:0.9477838 16:0.7811703 17:0.98509246 18:0.8696588 19:0.30301338 20:0.93853635 21:0.99609375 22:0.41597578 23:0.99083227 24:0.8478157 25:0.20750956 26:0.9427615 
-0.0 -0.0 -0.0 0.0 0.5239100900575563 0.0 0:0.6692443 1:0.18008609 2:0.7351722 3:0.5782047 4:0.032126915 5:0.5728635 6:0.73413587 7:0.17649873 8:0.8187978 9:0.6357621 10:0.0019929847 11:0.61782527 12:0.66828763 13:0.06584822 14:0.6692443 15:0.62364477 16:7.174745E-4 17:0.59996814 18:0.591199 19:0.14955357 20:0.64939415 21:0.84598213 22:0.18949299 23:0.97759885 24:0.50358737 25:0.08466199 26:0.53977996 
-0.0 -0.0 -0.7628962340994923 0.0 0.24406870060270278 0.0 0:0.6571269 1:0.17251275 2:0.71938777 3:0.5752551 4:0.028938137 5:0.56808037 6:0.7378029 7:0.1780931 8:0.8223055 9:0.64038587 10:0.0016741072 11:0.6201371 12:0.6701212 13:0.07015306 14:0.67211413 15:0.6151148 16:9.5663266E-4 17:0.5929528 18:0.60052615 19:0.15505421 20:0.66270727 21:0.8460619 22:0.18885523 23:0.97640306 24:0.5055006 25:0.08545918 26:0.54009885 
-0.0 -1.067468288849091 -0.0 0.0 0.0 0.13700024741266972 0:0.6492347 1:0.16398278 2:0.7063935 3:0.5723055 4:0.022082271 5:0.5621811 6:0.73596936 7:0.17729592 8:0.8186384 9:0.64078444 10:0.0015146683 11:0.6200574 12:0.67753506 13:0.080117986 14:0.6816805 15:0.6125638 16:0.001036352 17:0.5893654 18:0.60746175 19:0.16087373 20:0.6730708 21:0.845743 22:0.18781888 23:0.9754464 24:0.5104432 25:0.08856824 26:0.5465561 
-0.0 -0.680175563769055 -0.0 6.667097775243571 0.0 0.39410817574926355 0:0.86527425 1:0.80827487 2:0.87428254 3:0.79823023 4:0.7262436 5:0.80245537 6:0.77032846 7:0.58808994 8:0.79703444 9:0.8784279 10:0.8452647 11:0.87802935 12:0.9557557 13:0.94555163 14:0.95615435 15:0.6203763 16:0.35331634 17:0.61240435 18:0.76426977 19:0.6276307 20:0.78770727 21:0.6874203 22:0.40521365 23:0.74665177 24:0.734933 25:0.6480389 26:0.7433833 
-6.498766694211163 -15.0 -4.043125280635334 0.0 2.665326591174973 0.0 0:0.86328125 1:0.8017379 2:0.8725287 3:0.8006218 4:0.7289541 5:0.80484694 6:0.7737564 7:0.5961416 8:0.79966515 9:0.8761958 10:0.8405612 11:0.87595665 12:0.95583546 13:0.9449936 14:0.95711094 15:0.6250797 16:0.3605708 17:0.6157526 18:0.76626277 19:0.6301818 20:0.7896205 21:0.6898119 22:0.40967792 23:0.7476084 24:0.73341835 25:0.6460459 26:0.7433036 
-0.0832080654309431 -0.0 -0.0 -0.0 0.5599319353250205 0.0 0:0.9951371 1:0.19467475 2:0.07126913 3:0.6195791 4:0.09757653 5:0.027742347 6:0.6014828 7:0.12842794 8:0.04830995 9:0.7463329 10:0.15505421 11:0.055006377 12:0.5442443 13:0.1390306 14:0.025908802 15:0.6156728 16:0.16143176 17:0.023596939 18:0.85220027 19:0.16206951 20:0.06297832 21:0.80078125 22:0.15234375 23:0.09367028 24:0.5518176 25:0.11200574 26:0.04288903 
-0.36305261048461784 -1.153184761152181 -0.0 -0.3109313377688445 0.0 0.38563106477948383 0:0.99609375 1:0.5321269 2:0.2014509 3:0.9302455 4:0.39995217 5:0.23955676 6:0.97472894 7:0.6365593 8:0.5863361 9:0.97233737 10:0.62484056 11:0.38663903 12:0.98652744 13:0.8557079 14:0.8054847 15:0.99553573 16:0.97967154 17:0.9794324 18:0.96022004 19:0.45081314 20:0.24633291 21:0.97010523 22:0.55604273 23:0.3885523 24:0.9678731 25:0.6001276 26:0.5543686 
-0.0 -0.0 -0.6970878543613702 -0.15243754910524238 0.6290509174240905 0.0 0:0.99609375 1:0.5330038 2:0.2006537 3:0.93096304 4:0.39708227 5:0.23676658 6:0.97560585 7:0.64190054 8:0.5896843 9:0.9741709 10:0.6410236 11:0.41183037 12:0.98740435 13:0.86296237 14:0.8145727 15:0.99601406 16:0.9820631 17:0.98246175 18:0.96077806 19:0.44148597 20:0.2327009 21:0.96946746 22:0.5538106 23:0.39070472 24:0.9683514 25:0.6019611 26:0.55596304 
-0.0 -0.0 -0.0 -0.24596177948069492 0.0 0.7519072948223089 0:0.995456 1:0.19523278 2:0.07190689 3:0.62683356 4:0.09709822 5:0.026945153 6:0.6194994 7:0.1307398 8:0.05229592 9:0.7123724 10:0.15098852 11:0.051737882 12:0.5522959 13:0.14373405 14:0.025829082 15:0.6147959 16:0.16183035 17:0.022720026 18:0.8823342 19:0.1657366 20:0.06911671 21:0.78396046 22:0.14740115 23:0.09191646 24:0.53778696 25:0.109614156 26:0.04161352 
-0.0 -0.0 -1.175691464410372 -0.0 0.0 0.0 0:0.99497765 1:0.19618942 2:0.07294324 3:0.63727677 4:0.09797513 5:0.027822066 6:0.6218112 7:0.13058035 8:0.052375637 9:0.7150032 10:0.15210459 11:0.051259566 12:0.548868 13:0.14094388 14:0.025749363 15:0.61591196 16:0.16270727 17:0.0234375 18:0.8873565 19:0.16557717 20:0.06624681 21:0.77814096 22:0.1467634 23:0.09111926 24:0.5344388 25:0.110092476 26:0.04073661 
-0.0 -0.0 -1.8937595471530186 -0.0 0.0 0.0 0:0.89461094 1:0.80365115 2:0.7889828 3:0.7895408 4:0.70248723 5:0.6895727 6:0.7601244 7:0.60060585 8:0.57828444 9:0.88966835 10:0.8341837 11:0.8252551 12:0.9584662 13:0.9508131 14:0.94810265 15:0.62890625 16:0.4205995 17:0.35578763 18:0.8313935 19:0.63703763 20:0.6128029 21:0.66629463 22:0.41063458 23:0.38919005 24:0.74665177 25:0.6646205 26:0.6485172 
-0.0 -0.0 -0.0 -0.0 0.357658405209353 0.0 0:0.99489796 1:0.19491391 2:0.071827166 3:0.6322545 4:0.09821428 5:0.028380102 6:0.6167889 7:0.12978317 8:0.05070153 9:0.72385204 10:0.15146683 11:0.052375637 12:0.54408485 13:0.1389509 14:0.025111606 15:0.61615115 16:0.16350447 17:0.024394132 18:0.8738839 19:0.16446109 20:0.06552934 21:0.78404015 22:0.14875638 23:0.09159758 24:0.5396205 25:0.110889666 26:0.04169324 
-0.0 -0.0 -0.0 -0.0 0.0 0.4452299699349309 0:0.90146685 1:0.8211894 2:0.80867344 3:0.7905772 4:0.7195472 5:0.7083068 6:0.7462532 7:0.5639349 8:0.5401786 9:0.9025829 10:0.8576212 11:0.8506856 12:0.9536033 13:0.94547194 14:0.9415657 15:0.6209343 16:0.41103315 17:0.34925064 18:0.8223055 19:0.60578763 20:0.580118 21:0.6492347 22:0.381537 23:0.36041135 24:0.7433833 25:0.6571269 26:0.6394292 
-0.0 -0.0 -0.0 -0.5922290797614791 0.0 0.0 0:0.995456 1:0.19523278 2:0.073102675 3:0.6187022 4:0.09797513 5:0.027582908 6:0.60220027 7:0.12858737 8:0.04854911 9:0.7448182 10:0.1545759 11:0.055883292 12:0.54663587 13:0.13926977 14:0.025988521 15:0.61591196 16:0.1611926 17:0.0234375 18:0.85060585 19:0.16175064 20:0.0628986 21:0.8022959 22:0.15234375 23:0.09382972 24:0.5526148 25:0.111288264 26:0.043845665 
-3.971773146491128 -11.873538695647483 -14.02514035311682 -6.488598923025325 0.0 0.0 0:0.89461094 1:0.80365115 2:0.7889828 3:0.7895408 4:0.70248723 5:0.6895727 6:0.7601244 7:0.60060585 8:0.57828444 9:0.88966835 10:0.8341837 11:0.8252551 12:0.9584662 13:0.9508131 14:0.94810265 15:0.62890625 16:0.4205995 17:0.35578763 18:0.8313935 19:0.63703763 20:0.6128029 21:0.66629463 22:0.41063458 23:0.38919005 24:0.74665177 25:0.6646205 26:0.6485172 
-0.0 -1.0364693407863461 -0.0 -0.0 0.0 0.0 0:0.99489796 1:0.19459502 2:0.07150829 3:0.6284279 4:0.09933036 5:0.029257014 6:0.6111288 7:0.12970345 8:0.050063774 9:0.73907846 10:0.1541773 11:0.053810585 12:0.5431282 13:0.13759567 14:0.025908802 15:0.61790496 16:0.16302615 17:0.024314413 18:0.8611288 19:0.16183035 20:0.06369579 21:0.79217154 22:0.15035076 23:0.09279337 24:0.5479911 25:0.111288264 26:0.043606505 
-0.604301202886383 -0.0 -0.0 -0.0 0.0 0.0 0:0.99489796 1:0.19499362 2:0.07198661 3:0.6291454 4:0.09821428 5:0.02742347 6:0.61734694 7:0.1299426 8:0.05078125 9:0.7228157 10:0.15154655 11:0.051737882 12:0.5451212 13:0.13911033 14:0.025111606 15:0.6155134 16:0.16334502 17:0.024154974 18:0.8734853 19:0.16430166 20:0.0653699 21:0.78595346 22:0.14915498 23:0.09215561 24:0.5420121 25:0.11073023 26:0.041772958 
-0.0 -0.0 -0.7280460766685634 -0.0 3.5861883480047063 0.0 0:0.8920599 1:0.79559946 2:0.7801339 3:0.7997449 4:0.733817 5:0.72464925 6:0.7657047 7:0.59398913 8:0.57222575 9:0.8969228 10:0.84877235 11:0.8414381 12:0.95176977 13:0.9437978 14:0.94084823 15:0.6374362 16:0.43781888 17:0.37611607 18:0.8251754 19:0.61559314 20:0.5893654 21:0.65353954 22:0.39492986 23:0.37667412 24:0.7332589 25:0.64508927 26:0.6282685 
-0.2802081925453776 -0.344902277840406 -0.42790840749321735 -0.4089563403826863 -0.48585738604344825 0.14575114901116942 0:0.110012755 1:0.9663584 2:0.245456 3:0.32828444 4:0.96197385 5:0.22480868 6:0.1122449 7:0.9510523 8:0.023038903 9:0.66222894 10:0.9151786 11:0.57788587 12:0.043606505 13:0.9945791 14:0.113042094 15:0.4634088 16:0.948581 17:0.3080357 19:0.8754783 20:0.21747449 21:0.22927296 22:0.9426818 23:0.17912947 24:0.319037 25:0.9666773 26:0.23373725 
-0.0 -0.0 -0.0 -0.0 -0.0 0.8812041665649051 0:0.119977675 1:0.7068718 2:0.1545759 3:0.10164222 4:0.4527264 5:0.07692921 6:0.17299107 7:0.7108578 8:0.13504465 9:0.17147641 10:0.52742344 11:0.07134885 12:0.1398278 13:0.7657047 14:0.16828763 15:0.17450574 16:0.46324936 17:0.06082589 18:0.05596301 19:0.80492663 20:0.20487882 21:0.106584825 22:0.4893176 23:0.09885204 24:0.1648597 25:0.6379943 26:0.1118463 
-6.776303143427079 -3.064836072708043 -5.586573924122663 -2.6542793885210316 -3.763953976330266 0.5415307151999939 0:0.8136958 1:0.8917411 2:0.82095027 3:0.7769452 4:0.875 5:0.7549426 6:0.5698342 7:0.83689415 8:0.5431282 9:0.8889509 10:0.8938138 11:0.88926977 12:0.9406888 13:0.96022004 14:0.94132656 15:0.56672513 16:0.78284436 17:0.5003986 18:0.5633769 19:0.81409436 20:0.62053573 21:0.44523278 22:0.7346939 23:0.41645408 24:0.6599171 25:0.8324298 26:0.64915496 
-0.0 -0.0 -0.2015223319502383 -0.0 -0.14379639287501433 0.0 0:0.12149235 1:0.703683 2:0.1533801 3:0.1023597 4:0.45408162 5:0.07676977 6:0.1734694 7:0.7113361 8:0.13536352 9:0.16964285 10:0.53101087 11:0.0731824 12:0.1398278 13:0.7652264 14:0.16884567 15:0.17522322 16:0.46157527 17:0.0600287 18:0.055165816 19:0.80484694 20:0.20448023 21:0.107461736 22:0.48708546 23:0.09845345 24:0.16366391 25:0.6398278 26:0.11296237 
-0.0 -0.0 -0.6982403962031881 -0.0 -0.0 0.0 0:0.119180486 1:0.7105389 2:0.15593112 3:0.1011639 4:0.4509726 5:0.07645089 6:0.17323023 7:0.7114158 8:0.13456632 9:0.17195472 10:0.52319837 11:0.0703125 12:0.13974808 13:0.76626277 14:0.16852678 15:0.17370854 16:0.46476403 17:0.060905613 18:0.055006377 19:0.8042889 20:0.20320472 21:0.10714286 22:0.49147004 23:0.09972896 24:0.16589604 25:0.6339286 26:0.11065051 
-0.0 -0.643687180282742 -0.0 -0.6833628896236346 -0.7392218507144419 0.38781575998821527 0:0.11686862 1:0.7161193 2:0.15848215 3:0.09980867 4:0.4474649 5:0.07437819 6:0.1734694 7:0.71117663 8:0.13392857 9:0.17570153 10:0.51666135 11:0.06600765 12:0.13950893 13:0.76498723 14:0.16820791 15:0.17211416 16:0.46986607 17:0.063137755 18:0.054368623 19:0.80277425 20:0.20256697 21:0.106584825 22:0.49720982 23:0.101323344 24:0.16477998 25:0.6285077 26:0.10754146 
-0.2199704414568883 -0.0 -0.0 -0.0 -0.0 0.0 0:0.116549745 1:0.718192 2:0.15943877 3:0.09948979 4:0.4499362 5:0.07549426 6:0.17275192 7:0.7106186 8:0.13345025 9:0.17657845 10:0.51546556 11:0.06560905 12:0.13950893 13:0.7655453 14:0.16956314 15:0.17099808 16:0.47177935 17:0.065688774 18:0.05341199 19:0.8012596 20:0.20240752 21:0.106106505 22:0.4996014 23:0.10331633 24:0.16462053 25:0.6282685 26:0.10841837 
-0.5890359352680979 -0.0 -0.0 -0.0 -0.0 0.0 0:0.12244898 1:0.6998565 2:0.15178572 3:0.10100447 4:0.46420598 5:0.07908163 6:0.17291135 7:0.71029973 8:0.13496493 9:0.16996174 10:0.5367506 11:0.0756537 12:0.1385523 13:0.76698023 14:0.17012118 15:0.17195472 16:0.4564732 17:0.06122449 18:0.052535076 19:0.80484694 20:0.20360331 21:0.10331633 22:0.48533162 23:0.098772325 24:0.16063456 25:0.6446907 26:0.11511479 
-1.5000222009056616 -1.0604519433197725 -1.0865229410428279 -1.0812046531511756 -1.4119057534871229 -1.9563017907642835 0:0.15505421 1:0.25398597 2:0.23222257 3:0.060347576 4:0.16876595 5:0.1492347 6:0.025350764 7:0.13632016 8:0.11726722 9:0.12946428 10:0.23748405 11:0.22377232 12:0.3569037 13:0.4551977 14:0.36862245 15:0.18861607 16:0.27080676 17:0.22560586 18:0.6016422 19:0.73333865 20:0.6111288 21:0.099569514 22:0.20384248 23:0.17825255 24:0.024792729 25:0.12603635 26:0.10841837 
-0.0 -0.27068478885918995 -0.3622353877309402 -0.3305004682044279 -0.17086257604960087 -0.0 0:0.15322067 1:0.25199297 2:0.22975127 3:0.060347576 4:0.16772959 5:0.14899553 6:0.025271045 7:0.13632016 8:0.116470024 9:0.129544 10:0.23907845 11:0.22520727 12:0.3400829 13:0.43614477 14:0.35427296 15:0.18646365 16:0.2692921 17:0.2249681 18:0.620456 19:0.7555006 20:0.6286671 21:0.10778061 22:0.20982143 23:0.18239796 24:0.023836097 25:0.125 26:0.10841837 
