svm_type c_svc
kernel_type rbf
gamma 0.5
nr_class 2
total_sv 17
rho -0.07871434556190571
label 0 1
nr_sv 11 6
SV
0.8725285251356758 0:0.93160075 1:0.7444994 3:0.59933037 4:0.3968431 6:0.9317602 7:0.73915815 9:0.60722256 10:0.39237884 12:0.54910713 13:0.3581792 15:0.61535394 16:0.4231505 18:0.9300064 19:0.7491231 21:0.55397004 22:0.3478157 24:0.9359853 25:0.7511958 
0.837644395311653 0:0.17697704 1:0.5141103 2:0.64421237 3:0.20248725 4:0.58529973 5:0.74290496 6:0.15688775 7:0.41485968 8:0.5171397 9:0.13129783 10:0.3458227 11:0.44363838 12:0.21293049 13:0.60722256 14:0.75717473 15:0.2265625 16:0.6001276 17:0.7653061 18:0.24689095 19:0.6587213 20:0.8559471 21:0.1924426 22:0.5043048 23:0.6441327 24:0.27072704 25:0.75382656 26:0.9847736 
0.3345743367827749 0:0.9951371 1:0.19427615 2:0.07158801 3:0.62276787 4:0.098294005 5:0.028140943 6:0.60227996 7:0.12858737 8:0.048628826 9:0.74808675 10:0.15529336 11:0.055165816 12:0.54464287 13:0.13823342 14:0.025908802 15:0.61654973 16:0.16214924 17:0.023995535 18:0.8529974 19:0.16151148 20:0.06234056 21:0.7986288 22:0.15154655 23:0.0933514 24:0.5501435 25:0.11160714 26:0.044005103 
1.15960854745355 0:0.8136958 1:0.8917411 2:0.82095027 3:0.7769452 4:0.875 5:0.7549426 6:0.5698342 7:0.83689415 8:0.5431282 9:0.8889509 10:0.8938138 11:0.88926977 12:0.9406888 13:0.96022004 14:0.94132656 15:0.56672513 16:0.78284436 17:0.5003986 18:0.5633769 19:0.81409436 20:0.62053573 21:0.44523278 22:0.7346939 23:0.41645408 24:0.6599171 25:0.8324298 26:0.64915496 
0.440886265197102 0:0.67123723 1:0.18008609 2:0.7378827 3:0.5810746 4:0.040816326 5:0.5821907 6:0.74720985 7:0.18311544 8:0.8358578 9:0.6430166 10:0.0016741072 11:0.62276787 12:0.6608737 13:0.05476722 14:0.6594388 15:0.6154337 16:8.7691325E-4 17:0.59375 18:0.59845346 19:0.15146683 20:0.6588807 21:0.84709823 22:0.19188456 23:0.97680163 24:0.49952167 25:0.07916135 26:0.53691006 
0.9397103466316864 0:0.8761161 1:0.79902744 2:0.83657527 3:0.84941006 4:0.6996173 5:0.7766263 6:0.80341196 7:0.66621494 8:0.7397162 9:0.87117344 10:0.8276467 11:0.84885204 12:0.9638871 13:0.95176977 14:0.9588648 15:0.7280772 16:0.39851722 17:0.5632972 18:0.8110651 19:0.6351244 20:0.7221779 21:0.69467473 22:0.41645408 23:0.5575574 24:0.8258131 25:0.73907846 26:0.79304844 
0.1049884032144171 0:0.85467154 1:0.15625 2:0.5098852 3:0.8742028 4:0.13536352 5:0.51403064 6:0.7965561 7:0.31273916 8:0.5645727 9:0.80078125 10:0.14867666 11:0.47472894 12:0.8773916 13:0.15441646 14:0.5268654 15:0.83816963 16:0.12755102 17:0.4847736 18:0.8498884 19:0.14875638 20:0.501993 21:0.84446746 22:0.14485013 23:0.49976084 24:0.87802935 25:0.41509885 26:0.6890147 
0.620185251115321 0:0.8545121 1:0.1570472 2:0.5102838 3:0.87276787 4:0.13544324 5:0.5112404 6:0.8018176 7:0.32708865 8:0.57541454 9:0.8005421 10:0.14931442 11:0.4736926 12:0.876993 13:0.15473533 14:0.5268654 15:0.83904654 16:0.12882653 17:0.48660713 18:0.8510045 19:0.14819834 20:0.5023916 21:0.8489318 22:0.14572704 23:0.5028699 24:0.8687022 25:0.3984375 26:0.67633927 
1.9732450887285495 0:0.86328125 1:0.8017379 2:0.8725287 3:0.8006218 4:0.7289541 5:0.80484694 6:0.7737564 7:0.5961416 8:0.79966515 9:0.8761958 10:0.8405612 11:0.87595665 12:0.95583546 13:0.9449936 14:0.95711094 15:0.6250797 16:0.3605708 17:0.6157526 18:0.76626277 19:0.6301818 20:0.7896205 21:0.6898119 22:0.40967792 23:0.7476084 24:0.73341835 25:0.6460459 26:0.7433036 
0.20805496603146334 0:0.15322067 1:0.25199297 2:0.22975127 3:0.060347576 4:0.16772959 5:0.14899553 6:0.025271045 7:0.13632016 8:0.116470024 9:0.129544 10:0.23907845 11:0.22520727 12:0.3400829 13:0.43614477 14:0.35427296 15:0.18646365 16:0.2692921 17:0.2249681 18:0.620456 19:0.7555006 20:0.6286671 21:0.10778061 22:0.20982143 23:0.18239796 24:0.023836097 25:0.125 26:0.10841837 
1.1843220271836845 0:0.118702166 1:0.7100606 2:0.15617028 3:0.10052615 4:0.4600606 5:0.078364156 6:0.17171556 7:0.71029973 8:0.1344069 9:0.17426658 10:0.5263074 11:0.06887755 12:0.13911033 13:0.76634246 14:0.16948342 15:0.17004146 16:0.46404657 17:0.06281888 18:0.05205676 19:0.8029337 20:0.20216836 21:0.10530931 22:0.49410078 23:0.10100447 24:0.16135204 25:0.6352041 26:0.110889666 
-1.9804462101714206 0:0.41334504 1:0.74314415 2:0.99609375 3:0.46890944 4:0.88879144 5:0.99609375 6:0.827567 7:0.88416773 8:0.99609375 9:0.7552615 10:0.8408004 11:0.99521685 12:0.49521685 13:0.86654973 14:0.99609375 15:0.53778696 16:0.8354592 17:0.99609375 18:0.47831634 19:0.8380102 20:0.99609375 21:0.5942283 22:0.817044 23:0.99609375 24:0.49705037 25:0.9331952 26:0.99609375 
-0.8123794320324037 0:0.99609375 1:0.5330038 2:0.2006537 3:0.93096304 4:0.39708227 5:0.23676658 6:0.97560585 7:0.64190054 8:0.5896843 9:0.9741709 10:0.6410236 11:0.41183037 12:0.98740435 13:0.86296237 14:0.8145727 15:0.99601406 16:0.9820631 17:0.98246175 18:0.96077806 19:0.44148597 20:0.2327009 21:0.96946746 22:0.5538106 23:0.39070472 24:0.9683514 25:0.6019611 26:0.55596304 
-1.7740698389046714 0:0.99609375 1:0.69889987 2:0.7737564 3:0.99609375 4:0.7008131 5:0.7742347 6:0.9768814 7:0.59709823 8:0.68885523 9:0.98620856 10:0.53348213 11:0.6483578 12:0.99609375 13:0.70041454 14:0.77407527 15:0.99609375 16:0.6875797 17:0.765625 18:0.99609375 19:0.69547194 20:0.76945156 21:0.9958546 22:0.6918048 23:0.7667411 24:0.9753667 25:0.6714764 26:0.74529654 
-1.7315953867392966 0:0.14102359 1:0.96659756 2:0.26466838 3:0.31114477 4:0.96022004 5:0.21404655 6:0.11104911 7:0.9535236 8:0.023915816 9:0.6389509 10:0.917331 11:0.5668048 12:0.041772958 13:0.9933833 14:0.113919005 15:0.48206314 16:0.9432398 17:0.3223852 19:0.8683833 20:0.21611926 21:0.24537627 22:0.9428412 23:0.19260204 24:0.28196746 25:0.9704241 26:0.20360331 
-1.3096030524182982 0:0.9221939 1:0.49067283 2:0.984375 3:0.9281728 4:0.6770568 5:0.9815051 6:0.9499362 7:0.30612245 8:0.97815686 9:0.969308 10:0.86336094 11:0.99601406 12:0.93279654 13:0.6557717 14:0.99609375 15:0.9350287 16:0.74083227 17:0.9799904 18:0.8683833 19:0.31026787 20:0.9367028 21:0.99609375 22:0.415338 23:0.99035394 24:0.8539541 25:0.21101722 26:0.9456314 
-1.0676542325197873 0:0.99609375 1:0.9468272 2:0.13400829 3:0.96029973 4:0.81529015 5:0.606824 6:0.99609375 7:0.9386161 8:0.13767539 9:0.9436384 10:0.75964606 11:0.58203125 12:0.9292092 13:0.7299904 14:0.45264667 15:0.93478954 16:0.8046078 17:0.58027744 18:0.99609375 19:0.92259246 20:0.13337053 21:0.940051 22:0.7260842 23:0.5571588 24:0.9956154 25:0.9123884 26:0.13408801 
